{"learner":{"attributes":{"scikit_learn":"{\"_estimator_type\": \"classifier\"}"},"feature_names":["Location","MinTemp","MaxTemp","Rainfall","WindGustDir","WindGustSpeed","WindDir9am","WindDir3pm","WindSpeed9am","WindSpeed3pm","Humidity9am","Humidity3pm","Pressure9am","Pressure3pm","Temp9am","Temp3pm","RainToday"],"feature_types":["int","float","float","float","int","float","int","int","float","float","float","float","float","float","float","float","int"],"gradient_booster":{"model":{"cats":{"enc":[],"feature_segments":[],"sorted_idx":[]},"gbtree_model_param":{"num_parallel_tree":"1","num_trees":"400"},"iteration_indptr":[0,1,2,3,4,5,6,7,8,9,10,11,12,13,14,15,16,17,18,19,20,21,22,23,24,25,26,27,28,29,30,31,32,33,34,35,36,37,38,39,40,41,42,43,44,45,46,47,48,49,50,51,52,53,54,55,56,57,58,59,60,61,62,63,64,65,66,67,68,69,70,71,72,73,74,75,76,77,78,79,80,81,82,83,84,85,86,87,88,89,90,91,92,93,94,95,96,97,98,99,100,101,102,103,104,105,106,107,108,109,110,111,112,113,114,115,116,117,118,119,120,121,122,123,124,125,126,127,128,129,130,131,132,133,134,135,136,137,138,139,140,141,142,143,144,145,146,147,148,149,150,151,152,153,154,155,156,157,158,159,160,161,162,163,164,165,166,167,168,169,170,171,172,173,174,175,176,177,178,179,180,181,182,183,184,185,186,187,188,189,190,191,192,193,194,195,196,197,198,199,200,201,202,203,204,205,206,207,208,209,210,211,212,213,214,215,216,217,218,219,220,221,222,223,224,225,226,227,228,229,230,231,232,233,234,235,236,237,238,239,240,241,242,243,244,245,246,247,248,249,250,251,252,253,254,255,256,257,258,259,260,261,262,263,264,265,266,267,268,269,270,271,272,273,274,275,276,277,278,279,280,281,282,283,284,285,286,287,288,289,290,291,292,293,294,295,296,297,298,299,300,301,302,303,304,305,306,307,308,309,310,311,312,313,314,315,316,317,318,319,320,321,322,323,324,325,326,327,328,329,330,331,332,333,334,335,336,337,338,339,340,341,342,343,344,345,346,347,348,349,350,351,352,353,354,355,356,357,358,359,360,361,362,363,364,365,366,367,368,369,370,371,372,373,374,375,376,377,378,379,380,381,382,383,384,385,386,387,388,389,390,391,392,393,394,395,396,397,398,399,400],"tree_info":[0,0,0,0,0,0,0,0,0,0,0,0,0,0,0,0,0,0,0,0,0,0,0,0,0,0,0,0,0,0,0,0,0,0,0,0,0,0,0,0,0,0,0,0,0,0,0,0,0,0,0,0,0,0,0,0,0,0,0,0,0,0,0,0,0,0,0,0,0,0,0,0,0,0,0,0,0,0,0,0,0,0,0,0,0,0,0,0,0,0,0,0,0,0,0,0,0,0,0,0,0,0,0,0,0,0,0,0,0,0,0,0,0,0,0,0,0,0,0,0,0,0,0,0,0,0,0,0,0,0,0,0,0,0,0,0,0,0,0,0,0,0,0,0,0,0,0,0,0,0,0,0,0,0,0,0,0,0,0,0,0,0,0,0,0,0,0,0,0,0,0,0,0,0,0,0,0,0,0,0,0,0,0,0,0,0,0,0,0,0,0,0,0,0,0,0,0,0,0,0,0,0,0,0,0,0,0,0,0,0,0,0,0,0,0,0,0,0,0,0,0,0,0,0,0,0,0,0,0,0,0,0,0,0,0,0,0,0,0,0,0,0,0,0,0,0,0,0,0,0,0,0,0,0,0,0,0,0,0,0,0,0,0,0,0,0,0,0,0,0,0,0,0,0,0,0,0,0,0,0,0,0,0,0,0,0,0,0,0,0,0,0,0,0,0,0,0,0,0,0,0,0,0,0,0,0,0,0,0,0,0,0,0,0,0,0,0,0,0,0,0,0,0,0,0,0,0,0,0,0,0,0,0,0,0,0,0,0,0,0,0,0,0,0,0,0,0,0,0,0,0,0,0,0,0,0,0,0,0,0,0,0,0,0,0,0,0,0,0,0,0,0,0,0,0,0,0,0,0,0,0,0,0,0,0,0,0,0,0,0,0,0,0,0,0,0,0,0,0,0],"trees":[{"base_weights":[-2.0982735E-3,-7.0197505E-1,1.140998E0,-1.0700806E0,-1.5541738E-1,6.967809E-1,1.6241381E0,-1.2738962E0,-1.410156E-1,-4.2460456E-1,8.125284E-1,3.6778325E-1,1.2186764E0,1.2827325E0,1.7497747E0,-7.7609277E-1,-1.426497E0,2.9922548E-1,-4.7903302E-1,-1.094061E-1,-8.68581E-1,1.2153229E0,3.7227592E-1,8.139685E-1,8.0825575E-2,1.4817386E0,9.7552216E-1,1.0548971E0,1.5477154E0,1.1224176E0,1.7943826E0,-1.4872595E0,-4.8180297E-1,-1.6188517E0,-1.2294765E0,-3.2694656E-1,5.5677515E-1,-7.883307E-1,-9.056317E-3,-3.619739E-1,2.1187504E-1,-1.0757391E0,-5.6199664E-1,9.0539134E-1,1.4069246E0,7.619295E-2,8.615136E-1,5.799464E-1,1.0943643E0,-5.68411E-1,2.1881706E-1,1.6728828E0,1.2068263E0,5.8758926E-1,1.0861849E0,1.1921248E0,5.0386506E-1,-4.2176417E-1,1.5684762E0,1.1985874E0,-8.3138525E-1,1.8162374E0,1.2537006E0,-1.5529788E-2,-7.71861E-2,1.7652301E-2,-2.8995683E-2,-8.7466374E-2,-7.360162E-2,-4.917742E-2,-7.696556E-2,-2.1807406E-2,2.9228512E-2,4.864326E-2,1.8716417E-2,-8.225578E-2,-3.1719886E-2,2.0756483E-2,-1.5129241E-2,1.906278E-3,-3.0798316E-2,2.856193E-2,-3.0280738E-3,-4.8079494E-2,-7.544895E-2,-3.6030814E-2,-7.540474E-3,6.485783E-2,3.3397313E-2,7.106866E-2,-1.4715144E-2,-1.45699205E-2,1.8183496E-2,2.240413E-2,5.4867536E-2,5.6245893E-2,1.9526906E-2,3.7169855E-2,6.4369835E-2,-6.6910633E-3,-5.936363E-2,-4.661347E-4,1.9102288E-2,7.0851475E-2,8.709433E-2,5.3518094E-2,7.999229E-2,4.717633E-2,-8.490318E-3,-7.0046134E-2,5.5483874E-2,7.7252686E-3,6.2357146E-2,-4.674817E-3,4.150326E-2,-7.333334E-2,2.1499677E-2,8.640214E-2,7.076102E-2,9.101551E-2,4.9956687E-2,-8.461539E-2,2.1499677E-2,8.5534476E-2,9.350704E-2,6.8739176E-2,-8.511822E-3],"categories":[],"categories_nodes":[],"categories_segments":[],"categories_sizes":[],"default_left":[0,0,0,0,0,0,0,0,0,0,0,0,0,0,0,0,0,0,0,0,0,0,0,0,0,0,0,0,0,0,0,0,0,0,0,0,0,0,0,0,0,0,0,0,0,0,0,0,0,0,0,0,0,0,0,0,0,0,0,0,0,0,0,0,0,0,0,0,0,0,0,0,0,0,0,0,0,0,0,0,0,0,0,0,0,0,0,0,0,0,0,0,0,0,0,0,0,0,0,0,0,0,0,0,0,0,0,0,0,0,0,0,0,0,0,0,0,0,0,0,0,0,0,0,0,0,0],"id":0,"left_children":[1,3,5,7,9,11,13,15,17,19,21,23,25,27,29,31,33,35,37,39,41,43,45,47,49,51,53,55,57,59,61,63,65,67,69,71,73,75,77,79,81,83,85,87,89,91,93,95,97,99,101,103,105,107,109,111,113,115,117,119,121,123,125,-1,-1,-1,-1,-1,-1,-1,-1,-1,-1,-1,-1,-1,-1,-1,-1,-1,-1,-1,-1,-1,-1,-1,-1,-1,-1,-1,-1,-1,-1,-1,-1,-1,-1,-1,-1,-1,-1,-1,-1,-1,-1,-1,-1,-1,-1,-1,-1,-1,-1,-1,-1,-1,-1,-1,-1,-1,-1,-1,-1,-1,-1,-1,-1],"loss_changes":[2.3943678E4,3.7345586E3,2.438124E3,2.1002178E3,1.9472053E3,1.0165493E3,2.3124316E2,6.8991113E2,2.9727295E2,8.1809985E2,2.879137E2,4.6525916E2,1.450149E2,8.6998535E1,1.092666E2,4.4642065E2,2.6181836E2,1.4013893E2,1.6423471E2,2.776255E2,1.5355872E2,4.9128296E1,1.1268763E2,9.270093E1,1.9837888E2,5.567334E1,5.056848E1,5.932617E1,2.832483E1,4.0678253E1,4.1572266E1,4.1033813E1,1.2409903E2,6.4836914E1,2.6083105E2,2.5493204E1,4.6345047E1,8.882596E1,5.6088768E1,1.9466536E2,1.4748221E2,7.0131714E1,6.3866333E1,2.9557343E1,1.3266357E1,5.146519E1,2.8112778E1,7.980917E1,4.2805115E1,1.0424188E2,6.799269E1,8.919556E0,2.2630249E1,7.211782E1,5.5710938E1,3.5987427E1,3.1205418E1,7.613199E0,1.3932007E1,3.0056274E1,1.2233879E1,1.7079102E1,2.5646866E1,0E0,0E0,0E0,0E0,0E0,0E0,0E0,0E0,0E0,0E0,0E0,0E0,0E0,0E0,0E0,0E0,0E0,0E0,0E0,0E0,0E0,0E0,0E0,0E0,0E0,0E0,0E0,0E0,0E0,0E0,0E0,0E0,0E0,0E0,0E0,0E0,0E0,0E0,0E0,0E0,0E0,0E0,0E0,0E0,0E0,0E0,0E0,0E0,0E0,0E0,0E0,0E0,0E0,0E0,0E0,0E0,0E0,0E0,0E0,0E0,0E0,0E0,0E0,0E0],"parents":[2147483647,0,0,1,1,2,2,3,3,4,4,5,5,6,6,7,7,8,8,9,9,10,10,11,11,12,12,13,13,14,14,15,15,16,16,17,17,18,18,19,19,20,20,21,21,22,22,23,23,24,24,25,25,26,26,27,27,28,28,29,29,30,30,31,31,32,32,33,33,34,34,35,35,36,36,37,37,38,38,39,39,40,40,41,41,42,42,43,43,44,44,45,45,46,46,47,47,48,48,49,49,50,50,51,51,52,52,53,53,54,54,55,55,56,56,57,57,58,58,59,59,60,60,61,61,62,62],"right_children":[2,4,6,8,10,12,14,16,18,20,22,24,26,28,30,32,34,36,38,40,42,44,46,48,50,52,54,56,58,60,62,64,66,68,70,72,74,76,78,80,82,84,86,88,90,92,94,96,98,100,102,104,106,108,110,112,114,116,118,120,122,124,126,-1,-1,-1,-1,-1,-1,-1,-1,-1,-1,-1,-1,-1,-1,-1,-1,-1,-1,-1,-1,-1,-1,-1,-1,-1,-1,-1,-1,-1,-1,-1,-1,-1,-1,-1,-1,-1,-1,-1,-1,-1,-1,-1,-1,-1,-1,-1,-1,-1,-1,-1,-1,-1,-1,-1,-1,-1,-1,-1,-1,-1,-1,-1,-1],"split_conditions":[6.5E1,5.2E1,7.9E1,5.4E1,5E1,4.4E1,8.4E1,1.0112E3,1.0084E3,1.0167E3,1.0126E3,1.0144E3,1.0122E3,4.3E1,6.5E0,2.6E1,3.9E1,2.4E1,4E1,7.5E1,3.7E1,7E1,5.9E1,8.2E1,9.4E0,2.21E1,6E0,1.0212E3,3.8E0,1.0248E3,1.0251E3,1E0,1.0036E3,3.9E1,1.0183E3,8.1E1,1.002E3,3E0,1.013E3,2.39E1,1.0123E3,1.026E3,8.1E1,1.88E1,4.8E1,7E1,6.8E1,2.24E1,3.3E1,1.0227E3,3.3E1,5.2E1,1.2E1,4E0,3E0,3.7E0,1.47E1,9.7E1,1.6E1,1.0151E3,9.3E1,8.9E1,1E2,-1.5529788E-2,-7.71861E-2,1.7652301E-2,-2.8995683E-2,-8.7466374E-2,-7.360162E-2,-4.917742E-2,-7.696556E-2,-2.1807406E-2,2.9228512E-2,4.864326E-2,1.8716417E-2,-8.225578E-2,-3.1719886E-2,2.0756483E-2,-1.5129241E-2,1.906278E-3,-3.0798316E-2,2.856193E-2,-3.0280738E-3,-4.8079494E-2,-7.544895E-2,-3.6030814E-2,-7.540474E-3,6.485783E-2,3.3397313E-2,7.106866E-2,-1.4715144E-2,-1.45699205E-2,1.8183496E-2,2.240413E-2,5.4867536E-2,5.6245893E-2,1.9526906E-2,3.7169855E-2,6.4369835E-2,-6.6910633E-3,-5.936363E-2,-4.661347E-4,1.9102288E-2,7.0851475E-2,8.709433E-2,5.3518094E-2,7.999229E-2,4.717633E-2,-8.490318E-3,-7.0046134E-2,5.5483874E-2,7.7252686E-3,6.2357146E-2,-4.674817E-3,4.150326E-2,-7.333334E-2,2.1499677E-2,8.640214E-2,7.076102E-2,9.101551E-2,4.9956687E-2,-8.461539E-2,2.1499677E-2,8.5534476E-2,9.350704E-2,6.8739176E-2,-8.511822E-3],"split_indices":[11,11,11,5,5,5,11,13,13,13,13,13,13,5,14,11,11,11,11,10,5,10,5,10,14,2,4,13,14,13,13,0,13,5,13,5,13,4,13,2,13,13,10,2,0,10,10,2,5,13,5,5,4,4,14,1,2,10,14,13,11,11,10,0,0,0,0,0,0,0,0,0,0,0,0,0,0,0,0,0,0,0,0,0,0,0,0,0,0,0,0,0,0,0,0,0,0,0,0,0,0,0,0,0,0,0,0,0,0,0,0,0,0,0,0,0,0,0,0,0,0,0,0,0,0,0,0],"split_type":[0,0,0,0,0,0,0,0,0,0,0,0,0,0,0,0,0,0,0,0,0,0,0,0,0,0,0,0,0,0,0,0,0,0,0,0,0,0,0,0,0,0,0,0,0,0,0,0,0,0,0,0,0,0,0,0,0,0,0,0,0,0,0,0,0,0,0,0,0,0,0,0,0,0,0,0,0,0,0,0,0,0,0,0,0,0,0,0,0,0,0,0,0,0,0,0,0,0,0,0,0,0,0,0,0,0,0,0,0,0,0,0,0,0,0,0,0,0,0,0,0,0,0,0,0,0,0],"sum_hessian":[2.9926602E4,1.8562088E4,1.1364515E4,1.1091217E4,7.4708706E3,5.9220254E3,5.442489E3,9.095501E3,1.995716E3,5.8457266E3,1.6251442E3,3.6333213E3,2.2887043E3,1.4670714E3,3.9754172E3,2.135456E3,6.960045E3,8.668399E2,1.128876E3,3.419394E3,2.4263325E3,8.477567E2,7.7738745E2,1.4213905E3,2.2119307E3,1.0969015E3,1.1918029E3,7.915062E2,6.755652E2,2.6564163E2,3.7097756E3,6.2384595E2,1.51161E3,3.518072E3,3.441973E3,2.5255116E2,6.1428876E2,6.8041125E2,4.4846475E2,1.9143472E3,1.5050469E3,1.4464569E3,9.798756E2,3.2605753E2,5.2169916E2,4.8501547E2,2.9237198E2,7.764354E2,6.449551E2,3.8717776E2,1.8247529E3,6.440286E2,4.5287286E2,2.6591953E2,9.258833E2,6.327613E2,1.5874495E2,6.8455205E0,6.6871967E2,2.560461E2,9.59552E0,3.5633816E3,1.4639394E2,2.8862429E1,5.949835E2,1.5868874E2,1.3529213E3,1.8569332E3,1.6611389E3,1.9212079E3,1.520765E3,2.259977E2,2.6553469E1,1.8592775E2,4.28361E2,1.0215173E2,5.782595E2,1.832422E2,2.6522256E2,7.43696E2,1.1706511E3,6.485136E2,8.5653326E2,1.1473696E3,2.9908728E2,7.065603E2,2.7331534E2,1.2136012E2,2.046974E2,5.174688E2,4.2303467E0,2.1284322E2,2.7217227E2,1.0725318E2,1.8511879E2,1.9898122E2,5.774542E2,2.3057674E2,4.1437836E2,2.2816634E2,1.5901141E2,7.61446E2,1.063307E3,1.4137428E2,5.0265436E2,3.389172E2,1.1395564E2,1.8073671E2,8.518281E1,8.115173E0,9.177681E2,3.205347E1,6.007078E2,5.6320377E1,1.0242457E2,2.75E0,4.0955205E0,3.2258035E2,3.461393E2,6.021662E1,1.9582948E2,5.5E0,4.0955205E0,1.2156862E3,2.3476956E3,1.349529E2,1.1441041E1],"tree_param":{"num_deleted":"0","num_feature":"17","num_nodes":"127","size_leaf_vector":"1"}},{"base_weights":[3.0971037E-3,-5.146809E-1,8.3224106E-1,2.5357836E-1,-6.899974E-1,4.61175E-1,1.1126225E0,8.023627E-1,-2.1494135E-1,-4.1879082E-1,-1.025325E0,9.311085E-1,1.6391422E-1,1.3266981E0,9.2551726E-1,1.0592157E0,3.570663E-1,-3.3769224E-2,-8.645939E-1,-1.2618505E-2,-9.4722885E-1,-1.2211313E0,-6.5157694E-1,1.1679192E0,5.419934E-1,3.0416948E-1,-1.7311633E-1,1.5397881E0,1.128188E0,7.336119E-1,1.225696E0,1.3331776E0,8.8173157E-1,8.559892E-1,1.1609459E-1,-2.8592E-1,5.400924E-1,-6.9652224E-1,-1.3927095E0,3.9952794E-1,-2.5344926E-1,-1.2349869E0,-6.070828E-1,-7.9920965E-1,-1.326313E0,-2.0343447E-1,-9.5271975E-1,1.3605695E0,8.3475125E-1,5.7577208E-2,7.626942E-1,6.595146E-1,9.9435955E-2,-1.1420848E0,-4.6298962E-2,1.6630952E0,1.4306014E0,7.4755543E-1,1.306743E0,5.9916645E-1,1.0603815E0,1.3809805E0,1.0717674E0,1.6452443E-2,7.062251E-2,2.534003E-2,5.4040052E-2,4.784039E-2,1.1054903E-2,2.2442834E-2,-2.3948917E-2,5.9604244E-3,-3.3770584E-2,6.0439408E-2,1.3403247E-2,-6.0374707E-2,-2.6403448E-2,-4.60073E-2,-8.009969E-2,4.266849E-2,2.0363915E-3,8.229008E-3,-2.206475E-2,-4.906637E-2,-7.635985E-2,-1.33415535E-2,-4.4193823E-2,-2.4351144E-2,-6.2485345E-2,-6.015184E-2,-7.3552795E-2,-1.9106846E-2,2.4956575E-2,-5.3762883E-2,-1.016499E-2,1.40595855E-2,6.897325E-2,5.2272428E-2,2.3568211E-2,3.716098E-2,-2.7157906E-2,5.1340725E-2,1.3237278E-2,1.4897892E-2,4.7039352E-2,-1.7664926E-2,1.5770255E-2,-2.5486544E-2,-7.3159456E-2,-1.963377E-2,8.180473E-3,7.499922E-2,8.731999E-2,5.409977E-2,7.910732E-2,5.5484857E-2,9.942249E-3,7.459543E-2,4.3018065E-2,4.0642396E-2,7.7021844E-3,5.922109E-2,1.4749372E-2,6.436288E-2,8.483509E-2,2.9154588E-2,6.225851E-2],"categories":[],"categories_nodes":[],"categories_segments":[],"categories_sizes":[],"default_left":[0,0,0,0,0,0,0,0,0,0,0,0,0,0,0,0,0,0,0,0,0,0,0,0,0,0,0,0,0,0,0,0,0,0,0,0,0,0,0,0,0,0,0,0,0,0,0,0,0,0,0,0,0,0,0,0,0,0,0,0,0,0,0,0,0,0,0,0,0,0,0,0,0,0,0,0,0,0,0,0,0,0,0,0,0,0,0,0,0,0,0,0,0,0,0,0,0,0,0,0,0,0,0,0,0,0,0,0,0,0,0,0,0,0,0,0,0,0,0,0,0,0,0,0,0,0,0],"id":1,"left_children":[1,3,5,7,9,11,13,15,17,19,21,23,25,27,29,31,33,35,37,39,41,43,45,47,49,51,53,55,57,59,61,63,65,67,69,71,73,75,77,79,81,83,85,87,89,91,93,95,97,99,101,103,105,107,109,111,113,115,117,119,121,123,125,-1,-1,-1,-1,-1,-1,-1,-1,-1,-1,-1,-1,-1,-1,-1,-1,-1,-1,-1,-1,-1,-1,-1,-1,-1,-1,-1,-1,-1,-1,-1,-1,-1,-1,-1,-1,-1,-1,-1,-1,-1,-1,-1,-1,-1,-1,-1,-1,-1,-1,-1,-1,-1,-1,-1,-1,-1,-1,-1,-1,-1,-1,-1,-1],"loss_changes":[1.2898686E4,2.491268E3,1.2011245E3,8.839183E2,1.3690884E3,6.944972E2,2.622544E2,1.8070013E2,2.1829706E2,1.7873182E3,4.919287E2,1.768905E2,1.4409311E2,1.2793994E2,2.0149634E2,4.7620117E1,6.971054E1,2.1018578E2,3.4929993E1,4.6753598E2,3.53469E2,1.9496094E2,3.1247253E2,7.567981E1,7.808064E1,1.565011E2,1.1005898E2,1.7489746E1,1.07142944E2,9.363318E1,3.1235596E1,3.0784729E1,4.51268E1,1.1883102E1,7.7976845E1,1.5930493E2,8.033829E1,2.5943512E1,8.083878E0,2.8286035E2,2.3353044E2,1.4373999E2,1.5614514E2,1.23704895E2,6.1290527E1,1.17256035E2,1.2700635E2,1.5045898E1,3.3277527E1,9.5057365E1,6.574243E1,7.970413E1,1.3373128E2,2.0302994E1,5.7751358E1,6.7143555E0,4.0015625E1,1.0118384E2,8.810986E1,1.446919E2,5.891107E1,1.7874634E1,5.7897156E1,0E0,0E0,0E0,0E0,0E0,0E0,0E0,0E0,0E0,0E0,0E0,0E0,0E0,0E0,0E0,0E0,0E0,0E0,0E0,0E0,0E0,0E0,0E0,0E0,0E0,0E0,0E0,0E0,0E0,0E0,0E0,0E0,0E0,0E0,0E0,0E0,0E0,0E0,0E0,0E0,0E0,0E0,0E0,0E0,0E0,0E0,0E0,0E0,0E0,0E0,0E0,0E0,0E0,0E0,0E0,0E0,0E0,0E0,0E0,0E0,0E0,0E0,0E0,0E0],"parents":[2147483647,0,0,1,1,2,2,3,3,4,4,5,5,6,6,7,7,8,8,9,9,10,10,11,11,12,12,13,13,14,14,15,15,16,16,17,17,18,18,19,19,20,20,21,21,22,22,23,23,24,24,25,25,26,26,27,27,28,28,29,29,30,30,31,31,32,32,33,33,34,34,35,35,36,36,37,37,38,38,39,39,40,40,41,41,42,42,43,43,44,44,45,45,46,46,47,47,48,48,49,49,50,50,51,51,52,52,53,53,54,54,55,55,56,56,57,57,58,58,59,59,60,60,61,61,62,62],"right_children":[2,4,6,8,10,12,14,16,18,20,22,24,26,28,30,32,34,36,38,40,42,44,46,48,50,52,54,56,58,60,62,64,66,68,70,72,74,76,78,80,82,84,86,88,90,92,94,96,98,100,102,104,106,108,110,112,114,116,118,120,122,124,126,-1,-1,-1,-1,-1,-1,-1,-1,-1,-1,-1,-1,-1,-1,-1,-1,-1,-1,-1,-1,-1,-1,-1,-1,-1,-1,-1,-1,-1,-1,-1,-1,-1,-1,-1,-1,-1,-1,-1,-1,-1,-1,-1,-1,-1,-1,-1,-1,-1,-1,-1,-1,-1,-1,-1,-1,-1,-1,-1,-1,-1,-1,-1,-1],"split_conditions":[4E-1,1.0121E3,3.1E0,2.37E1,2.21E1,1.0133E3,1.0125E3,8E0,3.42E1,1.0188E3,1.77E1,2.19E1,1.0213E3,1.89E1,1.14E1,1.66E1,1.3E1,2.28E1,1.0072E3,1.0149E3,7.7E0,1.0122E3,2.75E1,8E0,1.88E1,1.61E1,4.3E0,1.35E1,1.82E1,1.53E1,1.73E1,3.7E0,1.69E1,1.0115E3,2.02E1,8E0,2.95E1,4E0,3.55E1,1.77E1,1.59E1,1.61E1,1.81E1,2.94E1,8E0,2.14E1,2.4E1,2.4E0,1.0106E3,7E0,3.02E1,7.2E0,1.24E1,1.13E1,9E-1,6.7E0,1.05E1,2.19E1,2.95E1,1.68E1,2.81E1,1.24E1,1.43E1,1.6452443E-2,7.062251E-2,2.534003E-2,5.4040052E-2,4.784039E-2,1.1054903E-2,2.2442834E-2,-2.3948917E-2,5.9604244E-3,-3.3770584E-2,6.0439408E-2,1.3403247E-2,-6.0374707E-2,-2.6403448E-2,-4.60073E-2,-8.009969E-2,4.266849E-2,2.0363915E-3,8.229008E-3,-2.206475E-2,-4.906637E-2,-7.635985E-2,-1.33415535E-2,-4.4193823E-2,-2.4351144E-2,-6.2485345E-2,-6.015184E-2,-7.3552795E-2,-1.9106846E-2,2.4956575E-2,-5.3762883E-2,-1.016499E-2,1.40595855E-2,6.897325E-2,5.2272428E-2,2.3568211E-2,3.716098E-2,-2.7157906E-2,5.1340725E-2,1.3237278E-2,1.4897892E-2,4.7039352E-2,-1.7664926E-2,1.5770255E-2,-2.5486544E-2,-7.3159456E-2,-1.963377E-2,8.180473E-3,7.499922E-2,8.731999E-2,5.409977E-2,7.910732E-2,5.5484857E-2,9.942249E-3,7.459543E-2,4.3018065E-2,4.0642396E-2,7.7021844E-3,5.922109E-2,1.4749372E-2,6.436288E-2,8.483509E-2,2.9154588E-2,6.225851E-2],"split_indices":[3,12,3,15,15,13,13,6,15,13,1,15,13,15,3,15,8,1,13,13,1,13,15,6,1,15,1,15,1,1,15,1,14,12,15,7,15,4,15,15,15,15,15,15,7,1,1,1,13,7,15,1,1,15,3,1,1,15,15,15,2,1,1,0,0,0,0,0,0,0,0,0,0,0,0,0,0,0,0,0,0,0,0,0,0,0,0,0,0,0,0,0,0,0,0,0,0,0,0,0,0,0,0,0,0,0,0,0,0,0,0,0,0,0,0,0,0,0,0,0,0,0,0,0,0,0,0],"split_type":[0,0,0,0,0,0,0,0,0,0,0,0,0,0,0,0,0,0,0,0,0,0,0,0,0,0,0,0,0,0,0,0,0,0,0,0,0,0,0,0,0,0,0,0,0,0,0,0,0,0,0,0,0,0,0,0,0,0,0,0,0,0,0,0,0,0,0,0,0,0,0,0,0,0,0,0,0,0,0,0,0,0,0,0,0,0,0,0,0,0,0,0,0,0,0,0,0,0,0,0,0,0,0,0,0,0,0,0,0,0,0,0,0,0,0,0,0,0,0,0,0,0,0,0,0,0,0],"sum_hessian":[3.004298E4,1.8494219E4,1.1548761E4,3.4361443E3,1.5058075E4,4.9716973E3,6.577064E3,1.5821892E3,1.853955E3,8.326229E3,6.731846E3,1.9255316E3,3.0461658E3,3.0646128E3,3.512451E3,1.0025349E3,5.796543E2,1.4504985E3,4.0345642E2,4.7083115E3,3.6179167E3,4.416025E3,2.3158215E3,1.1957881E3,7.2974347E2,2.151088E3,8.950778E2,1.4747694E3,1.5898435E3,2.1447488E3,1.3677021E3,3.9158228E2,6.1095264E2,1.8795284E2,3.9170148E2,1.008064E3,4.4243448E2,3.0781412E2,9.56423E1,1.7362743E3,2.9720374E3,1.9584602E3,1.6594565E3,8.829181E2,3.5331067E3,9.314177E2,1.3844039E3,7.55719E2,4.400691E2,2.2880354E2,5.0093994E2,7.855058E2,1.365582E3,1.0266251E2,7.924153E2,6.8591626E2,7.888531E2,5.0931152E2,1.080532E3,1.5215565E3,6.2319226E2,6.768838E2,6.9081836E2,2.902899E1,3.625533E2,2.1311461E2,3.97838E2,1.61759E2,2.6193827E1,2.5137784E2,1.4032364E2,4.9445364E2,5.136104E2,1.2694232E2,3.1549216E2,7.478859E1,2.3302551E2,3.1012575E1,6.462973E1,7.6599646E2,9.702779E2,9.2148975E2,2.0505476E3,1.0507188E3,9.077415E2,7.452785E2,9.14178E2,5.227455E2,3.601726E2,1.9130721E3,1.6200345E3,7.429096E2,1.8850807E2,1.1894772E3,1.9492668E2,1.3275214E1,7.424438E2,2.773693E2,1.6269981E2,1.06739944E2,1.220636E2,3.266286E2,1.7431133E2,3.446022E2,4.4090363E2,4.4083246E2,9.2474963E2,3.544592E1,6.72166E1,2.9868127E2,4.93734E2,2.3831003E2,4.4760623E2,2.4148781E2,5.473653E2,3.0620068E2,2.0311082E2,7.6207166E2,3.1846033E2,1.0274855E3,4.940711E2,5.3581104E2,8.738129E1,5.2585846E2,1.5102536E2,1.8207262E2,5.0874573E2],"tree_param":{"num_deleted":"0","num_feature":"17","num_nodes":"127","size_leaf_vector":"1"}},{"base_weights":[8.457642E-4,-6.5028286E-1,1.0612277E0,-1.0051525E0,-1.2356191E-1,6.3571E-1,1.5183302E0,-1.2282859E0,-3.2197288E-1,-3.9467895E-1,7.037558E-1,3.3123598E-1,1.1245649E0,1.2178211E0,1.6291621E0,-8.148352E-1,-1.351343E0,5.802663E-2,-6.8389094E-1,-6.15687E-1,1.7139833E-1,1.0326431E0,2.8183797E-1,7.7348605E-2,8.189022E-1,7.926594E-1,1.32461E0,9.9833196E-1,1.4665025E0,1.1087197E0,1.6668199E0,-1.2812006E0,-3.9554244E-1,-1.5511817E0,-1.1922928E0,-6.510212E-1,3.5430354E-1,-9.891993E-1,-1.722518E-1,-3.763478E-1,-1.0442222E0,4.7794136E-1,-2.7599168E-1,6.5369606E-1,1.2162449E0,2.6183024E-2,7.3546004E-1,2.2170487E-1,-6.071155E-1,1.1108959E0,5.917154E-1,1.124638E0,4.9458814E-1,1.2144777E0,1.5518447E0,6.72219E-1,1.2078223E0,-8.5605495E-2,1.4829255E0,6.731466E-1,1.3864508E0,1.6860646E0,1.1861187E0,-5.0825447E-2,-7.5736955E-2,2.5398585E-3,-3.397363E-2,-7.086895E-2,-8.413792E-2,-4.9075883E-2,-7.2798386E-2,-7.50032E-2,-1.9268407E-2,2.4436869E-2,-6.1401945E-2,-2.9581869E-2,-6.346738E-2,1.2327251E-2,-3.4447115E-2,-4.735585E-3,-3.1026741E-2,-4.6745818E-2,-6.802646E-2,3.6124334E-2,1.1378097E-2,-5.11293E-2,-8.6045E-3,5.2508105E-2,1.8632315E-2,6.86422E-2,4.8772004E-2,-1.1426344E-2,2.5307635E-2,-2.1196667E-3,4.8550084E-2,2.5950128E-2,1.5204945E-3,-6.0771413E-2,-1.6670255E-2,4.2065445E-2,6.181506E-2,-1.0839477E-2,3.4978174E-2,6.8716146E-2,4.1832138E-2,3.5412442E-2,-8.276578E-3,6.299936E-2,4.04133E-2,-3.1999703E-3,7.8218035E-2,4.332468E-2,-7.072985E-3,-2.7783706E-3,6.2280543E-2,-6.8368755E-2,3.1392664E-2,6.313833E-2,7.886159E-2,3.8238183E-2,-7.467571E-2,7.31714E-2,3.1789027E-2,7.915867E-2,8.6971775E-2,6.498533E-2,6.99906E-3],"categories":[],"categories_nodes":[],"categories_segments":[],"categories_sizes":[],"default_left":[0,0,0,0,0,0,0,0,0,0,0,0,0,0,0,0,0,0,0,0,0,0,0,0,0,0,0,0,0,0,0,0,0,0,0,0,0,0,0,0,0,0,0,0,0,0,0,0,0,0,0,0,0,0,0,0,0,0,0,0,0,0,0,0,0,0,0,0,0,0,0,0,0,0,0,0,0,0,0,0,0,0,0,0,0,0,0,0,0,0,0,0,0,0,0,0,0,0,0,0,0,0,0,0,0,0,0,0,0,0,0,0,0,0,0,0,0,0,0,0,0,0,0,0,0,0,0],"id":2,"left_children":[1,3,5,7,9,11,13,15,17,19,21,23,25,27,29,31,33,35,37,39,41,43,45,47,49,51,53,55,57,59,61,63,65,67,69,71,73,75,77,79,81,83,85,87,89,91,93,95,97,99,101,103,105,107,109,111,113,115,117,119,121,123,125,-1,-1,-1,-1,-1,-1,-1,-1,-1,-1,-1,-1,-1,-1,-1,-1,-1,-1,-1,-1,-1,-1,-1,-1,-1,-1,-1,-1,-1,-1,-1,-1,-1,-1,-1,-1,-1,-1,-1,-1,-1,-1,-1,-1,-1,-1,-1,-1,-1,-1,-1,-1,-1,-1,-1,-1,-1,-1,-1,-1,-1,-1,-1,-1],"loss_changes":[2.0666059E4,3.4661328E3,2.2138975E3,1.6885635E3,1.6748687E3,8.776636E2,1.8083594E2,4.237998E2,3.7537097E2,7.036815E2,2.5546252E2,4.501745E2,1.4924414E2,7.947974E1,7.66875E1,3.7455505E2,2.0266211E2,2.8009656E2,2.1819092E2,4.144701E2,2.1680565E2,7.1240234E1,9.377025E1,2.3653336E2,8.192682E1,8.392389E1,3.342334E1,5.321649E1,1.7794556E1,3.213687E1,3.255078E1,5.4564453E1,1.2821375E2,4.7757812E1,1.979292E2,8.805629E1,2.0061125E2,9.673248E1,1.1347691E2,1.7853595E2,4.882434E1,5.7261703E1,4.970361E1,3.7502243E1,2.491748E1,6.347543E1,5.344281E1,1.1239427E2,6.90222E1,1.733844E1,6.1388885E1,2.7837189E1,6.3815384E1,1.6633911E1,9.341797E0,4.9375732E1,2.2997803E1,8.359598E0,1.2249268E1,2.265646E1,8.661011E0,1.6953125E1,1.7302277E1,0E0,0E0,0E0,0E0,0E0,0E0,0E0,0E0,0E0,0E0,0E0,0E0,0E0,0E0,0E0,0E0,0E0,0E0,0E0,0E0,0E0,0E0,0E0,0E0,0E0,0E0,0E0,0E0,0E0,0E0,0E0,0E0,0E0,0E0,0E0,0E0,0E0,0E0,0E0,0E0,0E0,0E0,0E0,0E0,0E0,0E0,0E0,0E0,0E0,0E0,0E0,0E0,0E0,0E0,0E0,0E0,0E0,0E0,0E0,0E0,0E0,0E0,0E0,0E0],"parents":[2147483647,0,0,1,1,2,2,3,3,4,4,5,5,6,6,7,7,8,8,9,9,10,10,11,11,12,12,13,13,14,14,15,15,16,16,17,17,18,18,19,19,20,20,21,21,22,22,23,23,24,24,25,25,26,26,27,27,28,28,29,29,30,30,31,31,32,32,33,33,34,34,35,35,36,36,37,37,38,38,39,39,40,40,41,41,42,42,43,43,44,44,45,45,46,46,47,47,48,48,49,49,50,50,51,51,52,52,53,53,54,54,55,55,56,56,57,57,58,58,59,59,60,60,61,61,62,62],"right_children":[2,4,6,8,10,12,14,16,18,20,22,24,26,28,30,32,34,36,38,40,42,44,46,48,50,52,54,56,58,60,62,64,66,68,70,72,74,76,78,80,82,84,86,88,90,92,94,96,98,100,102,104,106,108,110,112,114,116,118,120,122,124,126,-1,-1,-1,-1,-1,-1,-1,-1,-1,-1,-1,-1,-1,-1,-1,-1,-1,-1,-1,-1,-1,-1,-1,-1,-1,-1,-1,-1,-1,-1,-1,-1,-1,-1,-1,-1,-1,-1,-1,-1,-1,-1,-1,-1,-1,-1,-1,-1,-1,-1,-1,-1,-1,-1,-1,-1,-1,-1,-1,-1,-1,-1,-1,-1],"split_conditions":[6.5E1,5.2E1,7.9E1,5E1,4.8E1,4.4E1,8.4E1,1.0114E3,8E0,8E-1,1.0138E3,1.5E0,3E-1,4.3E1,6.5E0,3.5E1,3.7E1,2.5E1,4.1E1,1.0183E3,1.0161E3,6.8E1,2.1E0,1.023E3,1.0139E3,1.0126E3,6.1E1,3E-1,8.2E0,5E-1,1.0251E3,8E0,2.59E1,8E0,1.0184E3,3E0,1.0188E3,1.009E3,1.0139E3,1.85E1,1.0255E3,1.0122E3,9.2E0,1.0091E3,8E0,5.7E1,6.8E1,1.0139E3,9.4E0,8.2E1,2.6E1,2.07E1,2.1E1,3E1,5.3E0,1.0197E3,7E0,3E-1,1E-1,1.0249E3,1.5E1,8.9E1,1E2,-5.0825447E-2,-7.5736955E-2,2.5398585E-3,-3.397363E-2,-7.086895E-2,-8.413792E-2,-4.9075883E-2,-7.2798386E-2,-7.50032E-2,-1.9268407E-2,2.4436869E-2,-6.1401945E-2,-2.9581869E-2,-6.346738E-2,1.2327251E-2,-3.4447115E-2,-4.735585E-3,-3.1026741E-2,-4.6745818E-2,-6.802646E-2,3.6124334E-2,1.1378097E-2,-5.11293E-2,-8.6045E-3,5.2508105E-2,1.8632315E-2,6.86422E-2,4.8772004E-2,-1.1426344E-2,2.5307635E-2,-2.1196667E-3,4.8550084E-2,2.5950128E-2,1.5204945E-3,-6.0771413E-2,-1.6670255E-2,4.2065445E-2,6.181506E-2,-1.0839477E-2,3.4978174E-2,6.8716146E-2,4.1832138E-2,3.5412442E-2,-8.276578E-3,6.299936E-2,4.04133E-2,-3.1999703E-3,7.8218035E-2,4.332468E-2,-7.072985E-3,-2.7783706E-3,6.2280543E-2,-6.8368755E-2,3.1392664E-2,6.313833E-2,7.886159E-2,3.8238183E-2,-7.467571E-2,7.31714E-2,3.1789027E-2,7.915867E-2,8.6971775E-2,6.498533E-2,6.99906E-3],"split_indices":[11,11,11,5,5,5,11,13,7,3,13,3,3,5,14,11,11,11,11,13,13,10,3,13,13,13,5,3,2,3,13,7,2,7,13,7,13,13,13,14,13,13,14,12,6,5,10,13,14,10,5,14,14,8,14,13,14,3,3,13,6,11,10,0,0,0,0,0,0,0,0,0,0,0,0,0,0,0,0,0,0,0,0,0,0,0,0,0,0,0,0,0,0,0,0,0,0,0,0,0,0,0,0,0,0,0,0,0,0,0,0,0,0,0,0,0,0,0,0,0,0,0,0,0,0,0,0],"split_type":[0,0,0,0,0,0,0,0,0,0,0,0,0,0,0,0,0,0,0,0,0,0,0,0,0,0,0,0,0,0,0,0,0,0,0,0,0,0,0,0,0,0,0,0,0,0,0,0,0,0,0,0,0,0,0,0,0,0,0,0,0,0,0,0,0,0,0,0,0,0,0,0,0,0,0,0,0,0,0,0,0,0,0,0,0,0,0,0,0,0,0,0,0,0,0,0,0,0,0,0,0,0,0,0,0,0,0,0,0,0,0,0,0,0,0,0,0,0,0,0,0,0,0,0,0,0,0],"sum_hessian":[2.9929506E4,1.8543338E4,1.1386169E4,1.1078481E4,7.4648555E3,5.8980522E3,5.488117E3,8.350369E3,2.7281128E3,5.622764E3,1.8420911E3,3.635455E3,2.2625972E3,1.4819514E3,4.0061658E3,1.917046E3,6.433323E3,1.3312222E3,1.3968905E3,4.0438682E3,1.578896E3,1.0343568E3,8.0773425E2,2.391538E3,1.243917E3,8.527376E2,1.4098595E3,7.89842E2,6.921094E2,2.7236975E2,3.733796E3,9.066043E2,1.01044165E3,2.8472021E3,3.5861208E3,3.9196854E2,9.3925366E2,8.7426215E2,5.226283E2,2.5959143E3,1.4479539E3,9.368893E2,6.420068E2,3.3907648E2,6.952803E2,5.1726746E2,2.9046683E2,1.9755604E3,4.1597763E2,5.426202E2,7.012968E2,4.0211105E2,4.506266E2,9.538887E2,4.5597076E2,3.1057687E2,4.792651E2,7.2024837E0,6.8490686E2,1.07382576E2,1.6498717E2,3.5876577E3,1.461382E2,4.2746695E2,4.7913733E2,3.9318073E2,6.17261E2,1.417496E3,1.4297062E3,1.9956056E3,1.5905153E3,9.230611E1,2.9966245E2,8.6634155E2,7.291215E1,3.6268436E2,5.1157782E2,2.8894803E2,2.3368028E2,1.2061613E3,1.389753E3,1.07903E3,3.6892383E2,4.730127E2,4.638766E2,7.735121E1,5.646556E2,1.3952185E2,1.9955463E2,4.1845285E2,2.7682742E2,3.3827554E2,1.7899188E2,6.770329E1,2.2276353E2,7.728055E2,1.202755E3,1.2801898E2,2.8795862E2,1.7472285E2,3.678973E2,8.24186E1,6.1887823E2,2.1336057E2,1.8875047E2,3.403823E2,1.1024429E2,8.5589734E2,9.799138E1,3.4731011E0,4.5249768E2,2.5066339E2,5.99135E1,1.3905014E1,4.653601E2,2.2477422E0,4.9547415E0,2.0971487E2,4.7519202E2,1.03646904E2,3.7356691E0,1.48781E2,1.6206175E1,1.2358267E3,2.351831E3,1.3160623E2,1.4531969E1],"tree_param":{"num_deleted":"0","num_feature":"17","num_nodes":"127","size_leaf_vector":"1"}},{"base_weights":[4.785533E-3,-6.145361E-1,1.0206586E0,-1.0000043E0,-1.8740897E-1,6.176481E-1,1.4590207E0,-1.1917467E0,-1.6484325E-1,-4.6622506E-1,5.178582E-1,3.3749872E-1,1.066516E0,1.1592789E0,1.5693208E0,-7.7664703E-1,-1.3225989E0,1.8357684E-1,-5.57332E-1,-1.5931636E-1,-7.925605E-1,9.2794436E-1,1.40272E-1,7.476316E-1,9.82807E-2,8.2361865E-1,1.2857487E0,6.6440225E-1,1.2693491E0,9.455055E-1,1.5995461E0,-1.3066319E0,-4.6306002E-1,-1.6470184E0,-1.2433074E0,-4.060263E-1,4.4469276E-1,-1.3711394E0,-4.294239E-1,-5.064047E-1,6.413341E-2,-9.279058E-1,-2.7708745E-1,6.907872E-1,1.1769778E0,-1.6831185E-1,5.956577E-1,5.21552E-1,1.0341406E0,-1.0912089E-1,5.10967E-1,1.0817087E0,5.8336985E-1,1.4299935E0,1.1376561E0,7.552861E-1,-6.1804694E-1,1.5112389E0,1.1211863E0,5.3101844E-1,1.3056152E0,1.6038518E0,-6.1314076E-1,-9.453443E-3,-6.7847885E-2,-1.1658038E-2,-3.5242878E-2,-8.248804E-2,2.1453192E-2,-5.486265E-2,-7.323616E-2,-3.4648117E-2,-2.8875442E-3,3.1035397E-2,-1.1136118E-2,-7.749238E-2,-2.7614525E-2,-6.1080074E-3,-4.0231716E-2,-3.7741454E-3,-3.6316812E-2,2.9327113E-2,-4.005644E-3,-4.1429743E-2,-6.91785E-2,-3.1744E-2,-7.6020986E-4,2.2180563E-2,5.3556364E-2,5.150946E-2,6.999656E-2,-1.755962E-2,1.5913488E-2,-1.8781608E-2,3.528575E-2,4.5621164E-2,1.4148577E-2,3.4237236E-2,5.6656893E-2,1.1664262E-3,-2.9614449E-2,8.663714E-3,3.9254077E-2,6.6726126E-2,3.935099E-2,3.4649774E-2,-1.4606239E-2,6.5714054E-2,7.8990996E-2,3.1864654E-2,5.903194E-2,-3.9429385E-3,4.1298475E-2,-5.0922584E-2,5.769923E-2,7.795241E-2,2.8608501E-2,-3.0123234E-2,5.754713E-2,5.806739E-3,5.6762636E-2,6.907131E-2,3.219039E-2,8.126674E-2,5.7453632E-2,-8.61667E-2,4.4750318E-2],"categories":[],"categories_nodes":[],"categories_segments":[],"categories_sizes":[],"default_left":[0,0,0,0,0,0,0,0,0,0,0,0,0,0,0,0,0,0,0,0,0,0,0,0,0,0,0,0,0,0,0,0,0,0,0,0,0,0,0,0,0,0,0,0,0,0,0,0,0,0,0,0,0,0,0,0,0,0,0,0,0,0,0,0,0,0,0,0,0,0,0,0,0,0,0,0,0,0,0,0,0,0,0,0,0,0,0,0,0,0,0,0,0,0,0,0,0,0,0,0,0,0,0,0,0,0,0,0,0,0,0,0,0,0,0,0,0,0,0,0,0,0,0,0,0,0,0],"id":3,"left_children":[1,3,5,7,9,11,13,15,17,19,21,23,25,27,29,31,33,35,37,39,41,43,45,47,49,51,53,55,57,59,61,63,65,67,69,71,73,75,77,79,81,83,85,87,89,91,93,95,97,99,101,103,105,107,109,111,113,115,117,119,121,123,125,-1,-1,-1,-1,-1,-1,-1,-1,-1,-1,-1,-1,-1,-1,-1,-1,-1,-1,-1,-1,-1,-1,-1,-1,-1,-1,-1,-1,-1,-1,-1,-1,-1,-1,-1,-1,-1,-1,-1,-1,-1,-1,-1,-1,-1,-1,-1,-1,-1,-1,-1,-1,-1,-1,-1,-1,-1,-1,-1,-1,-1,-1,-1,-1],"loss_changes":[1.8782744E4,3.0534624E3,1.9966562E3,1.560916E3,1.7305349E3,7.4066113E2,1.7721777E2,4.296084E2,2.4918391E2,6.315288E2,3.859771E2,3.5604688E2,1.1950415E2,7.871265E1,7.307324E1,3.1560767E2,1.5298047E2,1.488444E2,8.859683E1,2.5219855E2,2.1297742E2,6.977258E1,1.8269696E2,8.606561E1,1.9637982E2,6.613916E1,2.3755127E1,3.1684586E1,4.108618E1,2.6957642E1,3.691504E1,3.9491577E1,6.637082E1,7.4294434E0,1.5513965E2,2.9631004E1,7.881413E1,1.6106812E1,8.543135E1,1.2063934E2,1.4916568E2,1.0838037E2,5.9680683E1,5.7303345E1,1.7590393E1,6.9104576E1,5.6394073E1,6.962169E1,1.9586426E1,9.7757996E1,7.0895905E1,3.7539368E1,5.3936478E1,8.291626E0,1.1961914E1,1.4838486E1,1.4141907E1,1.9335815E1,3.8859314E1,2.188082E1,4.0497437E0,3.4911133E1,1.5017842E1,0E0,0E0,0E0,0E0,0E0,0E0,0E0,0E0,0E0,0E0,0E0,0E0,0E0,0E0,0E0,0E0,0E0,0E0,0E0,0E0,0E0,0E0,0E0,0E0,0E0,0E0,0E0,0E0,0E0,0E0,0E0,0E0,0E0,0E0,0E0,0E0,0E0,0E0,0E0,0E0,0E0,0E0,0E0,0E0,0E0,0E0,0E0,0E0,0E0,0E0,0E0,0E0,0E0,0E0,0E0,0E0,0E0,0E0,0E0,0E0,0E0,0E0,0E0,0E0],"parents":[2147483647,0,0,1,1,2,2,3,3,4,4,5,5,6,6,7,7,8,8,9,9,10,10,11,11,12,12,13,13,14,14,15,15,16,16,17,17,18,18,19,19,20,20,21,21,22,22,23,23,24,24,25,25,26,26,27,27,28,28,29,29,30,30,31,31,32,32,33,33,34,34,35,35,36,36,37,37,38,38,39,39,40,40,41,41,42,42,43,43,44,44,45,45,46,46,47,47,48,48,49,49,50,50,51,51,52,52,53,53,54,54,55,55,56,56,57,57,58,58,59,59,60,60,61,61,62,62],"right_children":[2,4,6,8,10,12,14,16,18,20,22,24,26,28,30,32,34,36,38,40,42,44,46,48,50,52,54,56,58,60,62,64,66,68,70,72,74,76,78,80,82,84,86,88,90,92,94,96,98,100,102,104,106,108,110,112,114,116,118,120,122,124,126,-1,-1,-1,-1,-1,-1,-1,-1,-1,-1,-1,-1,-1,-1,-1,-1,-1,-1,-1,-1,-1,-1,-1,-1,-1,-1,-1,-1,-1,-1,-1,-1,-1,-1,-1,-1,-1,-1,-1,-1,-1,-1,-1,-1,-1,-1,-1,-1,-1,-1,-1,-1,-1,-1,-1,-1,-1,-1,-1,-1,-1,-1,-1,-1],"split_conditions":[6.5E1,4.9E1,7.9E1,5.4E1,4.6E1,4.4E1,8.4E1,1.0112E3,1.0098E3,1.0155E3,1.0124E3,1.014E3,1E0,3.1E1,1.4E0,2.8E1,2.5E1,2.4E1,1.9E1,7E1,1E0,5.7E1,1E0,1E0,1E0,1.0129E3,1.0121E3,1.0273E3,1.0105E3,9.7E1,3.31E1,1E0,1.56E1,4.8E1,1.0183E3,6.5E1,1.1E1,3.73E1,8E0,2.39E1,1.0083E3,1.0257E3,3.5E1,7.7E1,7.6E1,5.7E1,6.2E1,2.29E1,3.1E1,1.0237E3,3.5E1,1.61E1,2.4E1,6.1E1,8.2E0,1.19E1,1.4E1,4.7E1,9.6E0,6.8E0,1.5E1,1.0247E3,2.49E1,-9.453443E-3,-6.7847885E-2,-1.1658038E-2,-3.5242878E-2,-8.248804E-2,2.1453192E-2,-5.486265E-2,-7.323616E-2,-3.4648117E-2,-2.8875442E-3,3.1035397E-2,-1.1136118E-2,-7.749238E-2,-2.7614525E-2,-6.1080074E-3,-4.0231716E-2,-3.7741454E-3,-3.6316812E-2,2.9327113E-2,-4.005644E-3,-4.1429743E-2,-6.91785E-2,-3.1744E-2,-7.6020986E-4,2.2180563E-2,5.3556364E-2,5.150946E-2,6.999656E-2,-1.755962E-2,1.5913488E-2,-1.8781608E-2,3.528575E-2,4.5621164E-2,1.4148577E-2,3.4237236E-2,5.6656893E-2,1.1664262E-3,-2.9614449E-2,8.663714E-3,3.9254077E-2,6.6726126E-2,3.935099E-2,3.4649774E-2,-1.4606239E-2,6.5714054E-2,7.8990996E-2,3.1864654E-2,5.903194E-2,-3.9429385E-3,4.1298475E-2,-5.0922584E-2,5.769923E-2,7.795241E-2,2.8608501E-2,-3.0123234E-2,5.754713E-2,5.806739E-3,5.6762636E-2,6.907131E-2,3.219039E-2,8.126674E-2,5.7453632E-2,-8.61667E-2,4.4750318E-2],"split_indices":[11,11,11,5,5,5,11,13,13,13,13,13,16,5,1,11,11,11,11,10,16,5,16,16,16,13,13,13,13,11,15,0,1,9,13,5,6,15,6,2,13,13,5,10,10,5,10,2,5,13,5,1,15,5,14,2,14,0,2,15,6,13,1,0,0,0,0,0,0,0,0,0,0,0,0,0,0,0,0,0,0,0,0,0,0,0,0,0,0,0,0,0,0,0,0,0,0,0,0,0,0,0,0,0,0,0,0,0,0,0,0,0,0,0,0,0,0,0,0,0,0,0,0,0,0,0,0],"split_type":[0,0,0,0,0,0,0,0,0,0,0,0,0,0,0,0,0,0,0,0,0,0,0,0,0,0,0,0,0,0,0,0,0,0,0,0,0,0,0,0,0,0,0,0,0,0,0,0,0,0,0,0,0,0,0,0,0,0,0,0,0,0,0,0,0,0,0,0,0,0,0,0,0,0,0,0,0,0,0,0,0,0,0,0,0,0,0,0,0,0,0,0,0,0,0,0,0,0,0,0,0,0,0,0,0,0,0,0,0,0,0,0,0,0,0,0,0,0,0,0,0,0,0,0,0,0,0],"sum_hessian":[2.9852057E4,1.8545988E4,1.1306068E4,9.747684E3,8.798304E3,5.89181E3,5.4142583E3,7.927259E3,1.8204252E3,6.305761E3,2.492543E3,3.6287625E3,2.2630476E3,1.4595166E3,3.9547415E3,1.9016453E3,6.025614E3,9.6463324E2,8.5579193E2,3.250372E3,3.055389E3,1.1941506E3,1.2983923E3,1.3360371E3,2.2927253E3,1.0758378E3,1.1872098E3,2.668398E2,1.1926769E3,1.8425249E2,3.770489E3,7.0573505E2,1.1959103E3,1.1795864E3,4.8460273E3,2.9590988E2,6.687233E2,1.1491735E2,7.408746E2,1.2725039E3,1.9778683E3,2.4193516E3,6.3603754E2,6.135932E2,5.8055743E2,7.7431934E2,5.24073E2,7.483481E2,5.876891E2,1.5263641E3,7.663612E2,5.169721E2,5.5886566E2,5.970333E2,5.901765E2,2.4956487E2,1.7274958E1,4.4954782E2,7.43129E2,8.680935E1,9.744314E1,3.763441E3,7.04824E0,3.0615944E1,6.751191E2,6.1404504E2,5.818652E2,1.1782354E3,1.3509825E0,2.9235173E3,1.9225098E3,1.6169963E2,1.3421024E2,5.292231E2,1.3950027E2,9.359761E1,2.1319735E1,4.0804654E2,3.3282803E2,4.3044897E2,8.4205493E2,4.272942E2,1.5505741E3,1.9887308E3,4.3062067E2,2.68196E2,3.678415E2,3.732144E2,2.4037878E2,3.5346387E2,2.2709358E2,5.6299664E2,2.113227E2,5.309346E1,4.7097955E2,2.8257516E2,4.6577295E2,1.314992E2,4.5618985E2,1.1987156E3,3.2764856E2,3.440922E2,4.22269E2,2.763568E2,2.4061526E2,4.9685953E2,6.2006157E1,3.4238107E2,2.5465228E2,4.7939415E1,5.422371E2,1.9486471E1,2.300784E2,1.4437869E1,2.837089E0,4.2714133E2,2.2406496E1,1.2284648E1,7.3084436E2,5.2176052E1,3.4633293E1,8.645253E1,1.0990604E1,3.5912236E3,1.7221729E2,3.9775565E0,3.070684E0],"tree_param":{"num_deleted":"0","num_feature":"17","num_nodes":"127","size_leaf_vector":"1"}},{"base_weights":[-1.6742536E-4,-6.341012E-1,8.9759403E-1,-8.051102E-1,1.870862E-1,5.343621E-1,1.4104774E0,-1.1197808E0,-3.8693386E-1,-2.7002674E-1,6.807808E-1,2.6706854E-1,9.8522156E-1,1.1803774E0,1.5222557E0,-8.214291E-1,-1.2794363E0,-1.0327867E-1,-7.552282E-1,6.456801E-2,-6.879007E-1,8.8202655E-1,5.3198118E-2,6.7805016E-1,2.954393E-2,6.690803E-1,1.1837502E0,6.7516464E-1,1.2857732E0,9.0756565E-1,1.5529227E0,-1.3600775E0,-5.193502E-1,-1.4322336E0,-1.1422044E0,-3.9852208E-1,3.2443175E-1,-9.0253127E-1,-3.1524608E-1,-4.7850543E-1,2.4857691E-1,-9.061197E-1,-1.70742E-1,1.1980522E0,6.582105E-1,-2.6563823E-1,5.7529366E-1,9.645797E-1,4.8270282E-1,-1.3521639E-1,6.0676384E-1,9.837892E-1,3.824069E-1,8.920784E-1,1.2752008E0,7.7723116E-1,-8.330734E-1,1.066021E0,1.423009E0,5.063428E-1,1.2054297E0,1.5582849E0,-6.685389E-1,-8.301084E-3,-6.936134E-2,-1.129608E-2,-3.6040705E-2,-6.770086E-2,-8.160501E-2,-4.7279313E-2,-6.7128666E-2,1.2612757E-2,-2.5313048E-2,-2.1489954E-3,2.7417867E-2,-5.8557767E-2,-3.838628E-2,-3.1280246E-2,-1.7639734E-3,-3.1060938E-2,1.9069979E-2,-3.453852E-3,2.3765309E-2,-6.791537E-2,-3.865856E-2,-3.127515E-2,1.1378648E-2,6.0627133E-2,-6.8878785E-2,1.0559524E-2,4.059503E-2,-3.6463585E-2,-2.7064893E-3,-3.384755E-2,3.4200363E-2,2.1983448E-3,5.0808586E-2,7.1780286E-3,3.9223045E-2,-1.4973923E-3,-3.9382264E-2,1.28479E-2,4.2608924E-2,5.857187E-2,3.146071E-2,2.9441258E-2,-8.208695E-3,5.534134E-2,2.6231468E-2,5.7133574E-2,7.021305E-2,4.1730504E-2,-5.621294E-2,-6.0703088E-2,3.1053394E-2,6.4617E-2,3.5744425E-2,-7.889221E-3,7.150836E-2,6.962166E-2,1.5192253E-2,6.3482456E-2,3.2181982E-2,7.8819655E-2,5.422296E-2,-8.499744E-2,5.3131737E-2],"categories":[],"categories_nodes":[],"categories_segments":[],"categories_sizes":[],"default_left":[0,0,0,0,0,0,0,0,0,0,0,0,0,0,0,0,0,0,0,0,0,0,0,0,0,0,0,0,0,0,0,0,0,0,0,0,0,0,0,0,0,0,0,0,0,0,0,0,0,0,0,0,0,0,0,0,0,0,0,0,0,0,0,0,0,0,0,0,0,0,0,0,0,0,0,0,0,0,0,0,0,0,0,0,0,0,0,0,0,0,0,0,0,0,0,0,0,0,0,0,0,0,0,0,0,0,0,0,0,0,0,0,0,0,0,0,0,0,0,0,0,0,0,0,0,0,0],"id":4,"left_children":[1,3,5,7,9,11,13,15,17,19,21,23,25,27,29,31,33,35,37,39,41,43,45,47,49,51,53,55,57,59,61,63,65,67,69,71,73,75,77,79,81,83,85,87,89,91,93,95,97,99,101,103,105,107,109,111,113,115,117,119,121,123,125,-1,-1,-1,-1,-1,-1,-1,-1,-1,-1,-1,-1,-1,-1,-1,-1,-1,-1,-1,-1,-1,-1,-1,-1,-1,-1,-1,-1,-1,-1,-1,-1,-1,-1,-1,-1,-1,-1,-1,-1,-1,-1,-1,-1,-1,-1,-1,-1,-1,-1,-1,-1,-1,-1,-1,-1,-1,-1,-1,-1,-1,-1,-1,-1],"loss_changes":[1.6900668E4,2.444419E3,2.288918E3,1.8951963E3,6.773704E2,8.670078E2,1.2924707E2,3.9048242E2,6.462809E2,2.1799408E2,1.8219165E2,4.4115625E2,1.6729736E2,8.8069336E1,6.316748E1,4.6597144E2,1.10600586E2,4.4164178E2,1.7417175E2,8.671625E1,7.8078766E1,7.6486084E1,5.8650658E1,9.218335E1,2.7256656E2,9.303369E1,4.2708008E1,4.535292E1,4.012671E1,1.9131943E1,3.98916E1,3.315674E1,1.0856052E2,3.732129E1,1.1002026E2,1.4518887E2,1.1754222E2,7.210742E1,5.877556E1,2.7192822E1,4.669717E1,2.8244232E1,3.762771E1,1.8529846E1,4.3920197E1,2.1422676E1,1.864457E1,3.1778687E1,1.0081737E2,1.5311617E2,5.441461E1,3.2059265E1,6.141166E1,3.0643402E1,1.9760132E1,3.0671494E1,1.121908E1,4.157776E1,9.810303E0,1.2515612E1,2.5771637E0,2.620996E1,1.7078814E1,0E0,0E0,0E0,0E0,0E0,0E0,0E0,0E0,0E0,0E0,0E0,0E0,0E0,0E0,0E0,0E0,0E0,0E0,0E0,0E0,0E0,0E0,0E0,0E0,0E0,0E0,0E0,0E0,0E0,0E0,0E0,0E0,0E0,0E0,0E0,0E0,0E0,0E0,0E0,0E0,0E0,0E0,0E0,0E0,0E0,0E0,0E0,0E0,0E0,0E0,0E0,0E0,0E0,0E0,0E0,0E0,0E0,0E0,0E0,0E0,0E0,0E0,0E0,0E0],"parents":[2147483647,0,0,1,1,2,2,3,3,4,4,5,5,6,6,7,7,8,8,9,9,10,10,11,11,12,12,13,13,14,14,15,15,16,16,17,17,18,18,19,19,20,20,21,21,22,22,23,23,24,24,25,25,26,26,27,27,28,28,29,29,30,30,31,31,32,32,33,33,34,34,35,35,36,36,37,37,38,38,39,39,40,40,41,41,42,42,43,43,44,44,45,45,46,46,47,47,48,48,49,49,50,50,51,51,52,52,53,53,54,54,55,55,56,56,57,57,58,58,59,59,60,60,61,61,62,62],"right_children":[2,4,6,8,10,12,14,16,18,20,22,24,26,28,30,32,34,36,38,40,42,44,46,48,50,52,54,56,58,60,62,64,66,68,70,72,74,76,78,80,82,84,86,88,90,92,94,96,98,100,102,104,106,108,110,112,114,116,118,120,122,124,126,-1,-1,-1,-1,-1,-1,-1,-1,-1,-1,-1,-1,-1,-1,-1,-1,-1,-1,-1,-1,-1,-1,-1,-1,-1,-1,-1,-1,-1,-1,-1,-1,-1,-1,-1,-1,-1,-1,-1,-1,-1,-1,-1,-1,-1,-1,-1,-1,-1,-1,-1,-1,-1,-1,-1,-1,-1,-1,-1,-1,-1,-1,-1,-1],"split_conditions":[6.3E1,5.4E1,8E1,5E1,4.5E1,4.4E1,8.6E1,1.0133E3,1.0162E3,1.01E3,1.0154E3,1.014E3,3E-1,3.1E1,1.4E0,2.8E1,3.7E1,1E-1,7E-1,1.9E1,6.5E1,1.0075E3,1.5E0,2.29E1,2.9E0,1.0129E3,6.7E1,1.0275E3,5E-1,9.7E1,3.31E1,1.002E3,1.82E1,1.0196E3,1.0182E3,1.0076E3,3.9E1,3E1,3.9E1,7.8E1,6.3E1,2.2E1,1.74E1,3.53E1,5.1E1,5.2E1,1.1E1,7.2E0,2E-1,1.0256E3,3.5E1,3E1,2.13E1,1.0154E3,5.6E1,4.7E1,4.5E0,1.0172E3,3E0,2E0,3E1,1.025E3,2.49E1,-8.301084E-3,-6.936134E-2,-1.129608E-2,-3.6040705E-2,-6.770086E-2,-8.160501E-2,-4.7279313E-2,-6.7128666E-2,1.2612757E-2,-2.5313048E-2,-2.1489954E-3,2.7417867E-2,-5.8557767E-2,-3.838628E-2,-3.1280246E-2,-1.7639734E-3,-3.1060938E-2,1.9069979E-2,-3.453852E-3,2.3765309E-2,-6.791537E-2,-3.865856E-2,-3.127515E-2,1.1378648E-2,6.0627133E-2,-6.8878785E-2,1.0559524E-2,4.059503E-2,-3.6463585E-2,-2.7064893E-3,-3.384755E-2,3.4200363E-2,2.1983448E-3,5.0808586E-2,7.1780286E-3,3.9223045E-2,-1.4973923E-3,-3.9382264E-2,1.28479E-2,4.2608924E-2,5.857187E-2,3.146071E-2,2.9441258E-2,-8.208695E-3,5.534134E-2,2.6231468E-2,5.7133574E-2,7.021305E-2,4.1730504E-2,-5.621294E-2,-6.0703088E-2,3.1053394E-2,6.4617E-2,3.5744425E-2,-7.889221E-3,7.150836E-2,6.962166E-2,1.5192253E-2,6.3482456E-2,3.2181982E-2,7.8819655E-2,5.422296E-2,-8.499744E-2,5.3131737E-2],"split_indices":[11,5,11,11,11,5,11,13,13,13,13,13,3,5,1,11,11,3,3,11,5,13,3,2,3,13,11,13,3,11,15,13,14,13,13,13,5,5,5,5,5,11,14,15,11,11,0,14,3,13,5,9,15,13,5,0,3,12,14,8,8,13,1,0,0,0,0,0,0,0,0,0,0,0,0,0,0,0,0,0,0,0,0,0,0,0,0,0,0,0,0,0,0,0,0,0,0,0,0,0,0,0,0,0,0,0,0,0,0,0,0,0,0,0,0,0,0,0,0,0,0,0,0,0,0,0,0],"split_type":[0,0,0,0,0,0,0,0,0,0,0,0,0,0,0,0,0,0,0,0,0,0,0,0,0,0,0,0,0,0,0,0,0,0,0,0,0,0,0,0,0,0,0,0,0,0,0,0,0,0,0,0,0,0,0,0,0,0,0,0,0,0,0,0,0,0,0,0,0,0,0,0,0,0,0,0,0,0,0,0,0,0,0,0,0,0,0,0,0,0,0,0,0,0,0,0,0,0,0,0,0,0,0,0,0,0,0,0,0,0,0,0,0,0,0,0,0,0,0,0,0,0,0,0,0,0,0],"sum_hessian":[2.9694072E4,1.7404543E4,1.2289528E4,1.4404817E4,2.9997266E3,7.1955615E3,5.093967E3,8.218705E3,6.186112E3,1.5578048E3,1.4419219E3,4.518404E3,2.6771577E3,1.6692694E3,3.4246973E3,2.8670793E3,5.351626E3,3.4953342E3,2.6907778E3,8.6557666E2,6.9222815E2,1.0915055E3,3.5041638E2,1.6542502E3,2.8641536E3,1.0343718E3,1.642786E3,2.89407E2,1.3798624E3,1.6419397E2,3.2605034E3,1.0289022E3,1.838177E3,2.527742E3,2.823884E3,2.0679329E3,1.4274012E3,2.0150883E3,6.7568945E2,2.186538E2,6.469229E2,4.8628458E2,2.0594357E2,4.5072882E2,6.407766E2,2.1786223E2,1.3255417E2,6.690176E2,9.852326E2,2.22875E3,6.354035E2,4.9191635E2,5.4245544E2,3.9469724E2,1.2480887E3,2.715174E2,1.7889635E1,5.338271E2,8.4603534E2,7.110945E1,9.308451E1,3.25295E3,7.5533266E0,2.3032274E1,1.00587E3,7.4916003E2,1.089017E3,1.8223519E3,7.0538995E2,1.4281688E3,1.3957152E3,2.9353665E2,1.7743962E3,5.408294E2,8.865718E2,6.707711E2,1.3443171E3,3.1986566E2,3.558238E2,1.8776854E2,3.0885254E1,2.6972543E2,3.7719745E2,1.0839434E2,3.7789023E2,9.5892075E1,1.100515E2,4.4873346E2,1.9953455E0,1.6454832E2,4.762283E2,6.748498E1,1.5037726E2,1.017092E1,1.2238324E2,3.5601097E1,6.334165E2,4.6457648E2,5.206561E2,1.9200056E3,3.0874445E2,2.6282645E2,3.7257706E2,3.2017142E2,1.7174493E2,3.93697E2,1.4875844E2,2.4783989E2,1.4685736E2,6.206298E2,6.2745886E2,2.6410876E2,7.40862E0,1.430642E1,3.5832145E0,3.2297568E2,2.1085141E2,3.7188976E0,8.423164E2,1.2134591E1,5.897486E1,8.240466E1,1.06798525E1,3.130966E3,1.2198383E2,4.7445965E0,2.80873E0],"tree_param":{"num_deleted":"0","num_feature":"17","num_nodes":"127","size_leaf_vector":"1"}},{"base_weights":[-3.5639496E-3,-5.6176513E-1,9.1903055E-1,-8.849603E-1,-1.3284363E-1,5.8440256E-1,1.378147E0,-1.8310077E-1,-1.0472246E0,5.1475316E-1,-3.6174825E-1,3.311352E-1,9.6136934E-1,1.1756566E0,1.4591448E0,-8.228308E-1,1.8490946E-2,-8.718122E-1,-1.2759334E0,1.4562911E-1,7.8935593E-1,-5.124079E-1,2.1802187E-1,6.897422E-1,6.1374072E-2,1.2000431E0,7.8716856E-1,1.0046283E0,1.3306807E0,9.657182E-1,1.4919233E0,4.2619097E-1,-8.864521E-1,2.229324E-1,-4.5676997E-1,-1.1201732E0,-5.910534E-1,-1.4839392E0,-1.1853408E0,7.605955E-1,-9.199818E-2,1.0490528E0,5.8169496E-1,-2.8999147E-1,-8.383515E-1,4.7335282E-1,1.6249662E-2,1.0163345E0,3.9371863E-1,1.7454867E-1,-4.874367E-1,1.2148705E0,-8.432918E-3,1.0502212E-1,8.242463E-1,1.2303215E0,7.685796E-1,2.710017E-2,1.3396115E0,6.389833E-1,1.3166587E0,1.4972303E0,-2.8370205E-1,7.16551E-2,-1.464015E-2,-7.735752E-2,-3.932106E-2,4.465465E-2,5.0730975E-3,-3.4633875E-2,5.7188614E-4,-7.190951E-2,-5.061201E-2,-1.9568492E-2,-4.1405912E-2,-7.064682E-2,-8.218649E-2,-5.1064253E-2,-6.482556E-2,5.8248263E-2,2.2732265E-2,8.913145E-3,-2.024959E-2,2.215912E-2,5.6391682E-2,4.109092E-2,2.6380203E-3,-3.0894293E-3,-2.938374E-2,-4.594734E-2,-2.3121519E-2,3.5748985E-2,1.08883E-2,-8.069689E-3,3.032284E-2,5.7310272E-2,3.7049077E-2,3.502234E-2,7.285446E-3,-1.6822284E-2,1.4001128E-2,-5.3622264E-2,-9.7569525E-3,6.725429E-2,5.4552563E-2,-8.881601E-2,3.3157583E-2,-3.827462E-2,1.5102923E-2,3.3495694E-2,4.802296E-2,-4.5755874E-2,6.275354E-2,4.105818E-2,-6.736882E-2,-5.6131836E-2,2.9453559E-2,7.3581405E-2,6.280058E-2,3.5670016E-2,-4.8520908E-2,6.871324E-2,4.126775E-2,7.581605E-2,4.9748234E-2,4.795382E-2,-8.230203E-2],"categories":[],"categories_nodes":[],"categories_segments":[],"categories_sizes":[],"default_left":[0,0,0,0,0,0,0,0,0,0,0,0,0,0,0,0,0,0,0,0,0,0,0,0,0,0,0,0,0,0,0,0,0,0,0,0,0,0,0,0,0,0,0,0,0,0,0,0,0,0,0,0,0,0,0,0,0,0,0,0,0,0,0,0,0,0,0,0,0,0,0,0,0,0,0,0,0,0,0,0,0,0,0,0,0,0,0,0,0,0,0,0,0,0,0,0,0,0,0,0,0,0,0,0,0,0,0,0,0,0,0,0,0,0,0,0,0,0,0,0,0,0,0,0,0,0,0],"id":5,"left_children":[1,3,5,7,9,11,13,15,17,19,21,23,25,27,29,31,33,35,37,39,41,43,45,47,49,51,53,55,57,59,61,63,65,67,69,71,73,75,77,79,81,83,85,87,89,91,93,95,97,99,101,103,105,107,109,111,113,115,117,119,121,123,125,-1,-1,-1,-1,-1,-1,-1,-1,-1,-1,-1,-1,-1,-1,-1,-1,-1,-1,-1,-1,-1,-1,-1,-1,-1,-1,-1,-1,-1,-1,-1,-1,-1,-1,-1,-1,-1,-1,-1,-1,-1,-1,-1,-1,-1,-1,-1,-1,-1,-1,-1,-1,-1,-1,-1,-1,-1,-1,-1,-1,-1,-1,-1,-1],"loss_changes":[1.5208652E4,2.5505122E3,1.7094844E3,1.1947959E3,1.1724037E3,6.1461255E2,7.524609E1,2.5427266E2,3.4078613E2,2.0925531E2,5.1049622E2,3.7279144E2,1.06649414E2,3.4346558E1,5.270215E1,3.7918945E1,1.4585672E2,3.358689E2,6.790625E1,1.2901144E2,6.325244E1,3.3600452E2,6.211935E1,1.5955157E2,1.3676663E2,1.9540527E1,3.7823425E1,3.3362244E1,8.146606E0,2.3394531E1,2.9988281E1,1.7485565E1,2.8514252E1,8.534974E1,4.9881218E1,8.640698E1,1.07013794E2,1.0358154E1,4.5736084E1,2.9908585E1,5.3983715E1,2.4555664E1,8.381731E1,1.8735222E2,5.6556885E1,3.271566E1,7.0831505E1,2.7257751E1,6.604047E1,9.846111E1,6.416775E1,1.5892944E1,1.8042355E1,1.3681388E1,2.9238342E1,1.8540619E1,3.6425827E1,4.410931E0,5.856079E0,1.4034233E1,1.7232208E0,2.8483887E1,1.883E1,0E0,0E0,0E0,0E0,0E0,0E0,0E0,0E0,0E0,0E0,0E0,0E0,0E0,0E0,0E0,0E0,0E0,0E0,0E0,0E0,0E0,0E0,0E0,0E0,0E0,0E0,0E0,0E0,0E0,0E0,0E0,0E0,0E0,0E0,0E0,0E0,0E0,0E0,0E0,0E0,0E0,0E0,0E0,0E0,0E0,0E0,0E0,0E0,0E0,0E0,0E0,0E0,0E0,0E0,0E0,0E0,0E0,0E0,0E0,0E0,0E0,0E0,0E0,0E0],"parents":[2147483647,0,0,1,1,2,2,3,3,4,4,5,5,6,6,7,7,8,8,9,9,10,10,11,11,12,12,13,13,14,14,15,15,16,16,17,17,18,18,19,19,20,20,21,21,22,22,23,23,24,24,25,25,26,26,27,27,28,28,29,29,30,30,31,31,32,32,33,33,34,34,35,35,36,36,37,37,38,38,39,39,40,40,41,41,42,42,43,43,44,44,45,45,46,46,47,47,48,48,49,49,50,50,51,51,52,52,53,53,54,54,55,55,56,56,57,57,58,58,59,59,60,60,61,61,62,62],"right_children":[2,4,6,8,10,12,14,16,18,20,22,24,26,28,30,32,34,36,38,40,42,44,46,48,50,52,54,56,58,60,62,64,66,68,70,72,74,76,78,80,82,84,86,88,90,92,94,96,98,100,102,104,106,108,110,112,114,116,118,120,122,124,126,-1,-1,-1,-1,-1,-1,-1,-1,-1,-1,-1,-1,-1,-1,-1,-1,-1,-1,-1,-1,-1,-1,-1,-1,-1,-1,-1,-1,-1,-1,-1,-1,-1,-1,-1,-1,-1,-1,-1,-1,-1,-1,-1,-1,-1,-1,-1,-1,-1,-1,-1,-1,-1,-1,-1,-1,-1,-1,-1,-1,-1,-1,-1,-1],"split_conditions":[6.5E1,5.1E1,8.1E1,1.0087E3,1.0133E3,1.5E0,8.6E1,2.2E1,1.0161E3,2E-1,1.7E0,1.0146E3,1.012E3,1.3E0,5.7E0,1E0,8E0,3.7E1,3.3E1,1.0056E3,1.95E1,1.0184E3,1.0159E3,2.08E1,1.0264E3,4.7E1,7.6E0,8.1E1,3.8E0,2.1E0,3.03E1,2.4E1,3E0,1.0006E3,6.9E1,1.9E1,8E0,1.021E3,1.0196E3,1.8E1,2.78E1,8.6E0,1.0086E3,2.44E1,2E1,8E0,1.15E1,8E0,1.0115E3,6.7E1,9.4E0,1.9E1,1.0067E3,5E0,7.2E1,9.6E0,1.0316E3,8.3E1,1.012E3,1.0249E3,1.5E1,1.0251E3,1.0054E3,7.16551E-2,-1.464015E-2,-7.735752E-2,-3.932106E-2,4.465465E-2,5.0730975E-3,-3.4633875E-2,5.7188614E-4,-7.190951E-2,-5.061201E-2,-1.9568492E-2,-4.1405912E-2,-7.064682E-2,-8.218649E-2,-5.1064253E-2,-6.482556E-2,5.8248263E-2,2.2732265E-2,8.913145E-3,-2.024959E-2,2.215912E-2,5.6391682E-2,4.109092E-2,2.6380203E-3,-3.0894293E-3,-2.938374E-2,-4.594734E-2,-2.3121519E-2,3.5748985E-2,1.08883E-2,-8.069689E-3,3.032284E-2,5.7310272E-2,3.7049077E-2,3.502234E-2,7.285446E-3,-1.6822284E-2,1.4001128E-2,-5.3622264E-2,-9.7569525E-3,6.725429E-2,5.4552563E-2,-8.881601E-2,3.3157583E-2,-3.827462E-2,1.5102923E-2,3.3495694E-2,4.802296E-2,-4.5755874E-2,6.275354E-2,4.105818E-2,-6.736882E-2,-5.6131836E-2,2.9453559E-2,7.3581405E-2,6.280058E-2,3.5670016E-2,-4.8520908E-2,6.871324E-2,4.126775E-2,7.581605E-2,4.9748234E-2,4.795382E-2,-8.230203E-2],"split_indices":[11,11,11,13,12,3,11,11,13,3,3,13,13,3,14,0,6,11,11,13,2,13,13,15,12,0,14,10,14,3,15,14,4,13,10,11,6,13,13,14,2,14,13,2,8,6,3,6,12,11,14,15,13,6,11,2,12,11,12,13,6,13,13,0,0,0,0,0,0,0,0,0,0,0,0,0,0,0,0,0,0,0,0,0,0,0,0,0,0,0,0,0,0,0,0,0,0,0,0,0,0,0,0,0,0,0,0,0,0,0,0,0,0,0,0,0,0,0,0,0,0,0,0,0,0,0,0],"split_type":[0,0,0,0,0,0,0,0,0,0,0,0,0,0,0,0,0,0,0,0,0,0,0,0,0,0,0,0,0,0,0,0,0,0,0,0,0,0,0,0,0,0,0,0,0,0,0,0,0,0,0,0,0,0,0,0,0,0,0,0,0,0,0,0,0,0,0,0,0,0,0,0,0,0,0,0,0,0,0,0,0,0,0,0,0,0,0,0,0,0,0,0,0,0,0,0,0,0,0,0,0,0,0,0,0,0,0,0,0,0,0,0,0,0,0,0,0,0,0,0,0,0,0,0,0,0,0],"sum_hessian":[2.9529742E4,1.8398445E4,1.1131297E4,1.0491768E4,7.9066777E3,6.4398623E3,4.6914346E3,1.9705339E3,8.521233E3,2.0645596E3,5.842118E3,3.8530476E3,2.5868147E3,1.3448623E3,3.3465725E3,4.7142734E2,1.4991066E3,4.825238E3,3.6959956E3,8.813583E2,1.1832012E3,4.6372056E3,1.2049127E3,1.6534614E3,2.1995862E3,1.0889487E3,1.4978658E3,6.4298193E2,7.018804E2,2.1036313E2,3.1362092E3,2.2572958E1,4.4885437E2,1.0485753E3,4.505313E2,2.5587563E3,2.2664814E3,1.1166721E3,2.5793235E3,2.4503093E2,6.363274E2,5.2393115E2,6.592701E2,2.7574644E3,1.8797411E3,5.312724E2,6.7364026E2,7.8498364E2,8.684778E2,1.824105E3,3.754811E2,1.0757446E3,1.3204151E1,7.741611E1,1.4204497E3,3.2654776E2,3.164342E2,4.803295E0,6.970771E2,1.1039927E2,9.996385E1,3.12702E3,9.189282E0,8.9899E0,1.3583059E1,5.711912E1,3.9173526E2,1.5992209E2,8.886532E2,2.9926602E2,1.5126529E2,6.452499E2,1.9135063E3,1.2316736E3,1.034808E3,7.7994617E2,3.3672592E2,1.0459655E3,1.5333582E3,1.0433079E2,1.4070013E2,3.4170517E2,2.9462222E2,6.104962E1,4.6288153E2,4.530449E2,2.0622516E2,1.5615748E3,1.1958896E3,1.5466942E3,3.3304684E2,2.721704E2,2.5910202E2,5.18351E2,1.5528929E2,5.3125385E2,2.5372978E2,3.8745953E2,4.8101825E2,3.117184E2,1.5123866E3,1.2421215E2,2.5126895E2,5.195223E2,5.562223E2,3.1822333E0,1.0021918E1,1.3756094E1,6.366001E1,6.6870703E2,7.5174274E2,3.313731E0,3.2323404E2,3.0935822E2,7.0759907E0,1.2494229E0,3.5538723E0,2.638367E2,4.332404E2,1.0605226E2,4.3470135E0,8.7864456E1,1.2099397E1,3.010572E3,1.16447975E2,4.960305E0,4.228977E0],"tree_param":{"num_deleted":"0","num_feature":"17","num_nodes":"127","size_leaf_vector":"1"}},{"base_weights":[-2.3231674E-3,-5.4018486E-1,8.8820857E-1,-7.180516E-1,1.685237E-1,5.7864165E-1,1.3537772E0,-1.0132232E0,-2.980096E-1,-2.9302824E-1,6.053673E-1,2.9999143E-1,9.5474064E-1,7.180151E-1,1.3812393E0,-6.387671E-1,-1.137488E0,-4.95925E-1,1.7480715E-1,-6.0300523E-1,1.517284E-1,8.0759746E-1,2.9708676E-2,6.179386E-2,6.5720797E-1,6.8232805E-1,1.128246E0,4.1996112E-1,1.1752989E0,1.1847284E0,1.4461457E0,-1.0636932E0,-2.6244E-1,-1.2695194E0,-9.1565925E-1,-2.7571994E-1,-8.534973E-1,3.8268697E-1,-2.6696858E-1,-3.1279942E-1,-9.0909237E-1,-1.1221563E-1,6.0360616E-1,1.0780549E0,6.214771E-1,-2.4492362E-1,4.6260577E-1,4.247594E-1,-1.6069198E-1,3.16634E-1,8.109227E-1,8.890957E-1,4.026356E-1,1.276806E0,9.8217523E-1,9.4216734E-2,9.233019E-1,5.5301386E-1,1.285145E0,8.038928E-1,1.2621342E0,1.4650455E0,9.425814E-1,-6.385268E-2,-4.0807344E-2,2.2809634E-3,-2.3493601E-2,-6.934398E-2,-5.5951476E-2,-3.3404484E-2,-5.8580257E-2,-9.947176E-4,-2.4528056E-2,-6.1133213E-2,-3.7502255E-2,1.2803834E-3,2.811907E-2,-2.4042046E-2,1.2755193E-2,-4.768795E-2,-7.3622013E-3,-7.400637E-2,-3.8052272E-2,-4.2117324E-2,4.099132E-3,3.4660887E-2,-6.35254E-2,5.473404E-2,-1.9909868E-2,1.4189246E-2,4.509436E-2,-2.9228011E-2,-4.900783E-5,1.4673683E-2,6.0116943E-2,4.1994955E-2,1.4327717E-2,-2.3852894E-3,-3.7446756E-2,-3.134145E-3,3.0999443E-2,2.7329346E-2,4.680697E-2,5.8063008E-2,2.8486121E-2,-1.7732944E-3,2.9668972E-2,5.750097E-2,7.026559E-2,2.8881267E-2,5.1232733E-2,-2.7133746E-2,4.937448E-2,5.0823487E-2,1.0222636E-2,-2.5644756E-3,5.6256164E-2,4.622258E-2,6.9311656E-2,4.3312397E-2,-4.1047018E-2,5.524959E-2,7.031685E-2,7.3516175E-2,-9.935953E-4,6.1585225E-2,1.4820998E-2],"categories":[],"categories_nodes":[],"categories_segments":[],"categories_sizes":[],"default_left":[0,0,0,0,0,0,0,0,0,0,0,0,0,0,0,0,0,0,0,0,0,0,0,0,0,0,0,0,0,0,0,0,0,0,0,0,0,0,0,0,0,0,0,0,0,0,0,0,0,0,0,0,0,0,0,0,0,0,0,0,0,0,0,0,0,0,0,0,0,0,0,0,0,0,0,0,0,0,0,0,0,0,0,0,0,0,0,0,0,0,0,0,0,0,0,0,0,0,0,0,0,0,0,0,0,0,0,0,0,0,0,0,0,0,0,0,0,0,0,0,0,0,0,0,0,0,0],"id":6,"left_children":[1,3,5,7,9,11,13,15,17,19,21,23,25,27,29,31,33,35,37,39,41,43,45,47,49,51,53,55,57,59,61,63,65,67,69,71,73,75,77,79,81,83,85,87,89,91,93,95,97,99,101,103,105,107,109,111,113,115,117,119,121,123,125,-1,-1,-1,-1,-1,-1,-1,-1,-1,-1,-1,-1,-1,-1,-1,-1,-1,-1,-1,-1,-1,-1,-1,-1,-1,-1,-1,-1,-1,-1,-1,-1,-1,-1,-1,-1,-1,-1,-1,-1,-1,-1,-1,-1,-1,-1,-1,-1,-1,-1,-1,-1,-1,-1,-1,-1,-1,-1,-1,-1,-1,-1,-1,-1],"loss_changes":[1.4002937E4,2.2976616E3,1.5857891E3,1.806146E3,7.376104E2,6.928264E2,7.575488E1,3.974209E2,5.6290967E2,2.4536513E2,2.1875995E2,3.2333362E2,1.3224414E2,2.4597588E1,5.201758E1,3.4101416E2,1.8696191E2,3.336222E2,1.6315372E2,9.2861145E1,8.731306E1,6.933557E1,5.832242E1,1.8428406E2,7.933197E1,6.3113647E1,3.602002E1,1.8441732E1,4.2168655E0,2.998108E1,2.8713867E1,5.1884277E1,7.243364E1,6.951807E1,1.5130432E2,1.4429446E2,6.0780884E1,7.748111E1,6.3622906E1,5.713901E1,4.1973114E1,6.5662994E1,4.6204796E1,1.4316895E1,7.7975586E1,2.4873413E1,2.3467773E1,4.9513138E1,9.4009895E1,5.46294E1,3.4138733E1,5.4116943E1,3.915696E1,1.2204346E1,1.4366455E1,4.02013E1,2.7582054E0,4.403855E0,9.250183E-1,1.8985153E1,1.8207886E1,2.3900879E1,2.1528664E1,0E0,0E0,0E0,0E0,0E0,0E0,0E0,0E0,0E0,0E0,0E0,0E0,0E0,0E0,0E0,0E0,0E0,0E0,0E0,0E0,0E0,0E0,0E0,0E0,0E0,0E0,0E0,0E0,0E0,0E0,0E0,0E0,0E0,0E0,0E0,0E0,0E0,0E0,0E0,0E0,0E0,0E0,0E0,0E0,0E0,0E0,0E0,0E0,0E0,0E0,0E0,0E0,0E0,0E0,0E0,0E0,0E0,0E0,0E0,0E0,0E0,0E0,0E0,0E0],"parents":[2147483647,0,0,1,1,2,2,3,3,4,4,5,5,6,6,7,7,8,8,9,9,10,10,11,11,12,12,13,13,14,14,15,15,16,16,17,17,18,18,19,19,20,20,21,21,22,22,23,23,24,24,25,25,26,26,27,27,28,28,29,29,30,30,31,31,32,32,33,33,34,34,35,35,36,36,37,37,38,38,39,39,40,40,41,41,42,42,43,43,44,44,45,45,46,46,47,47,48,48,49,49,50,50,51,51,52,52,53,53,54,54,55,55,56,56,57,57,58,58,59,59,60,60,61,61,62,62],"right_children":[2,4,6,8,10,12,14,16,18,20,22,24,26,28,30,32,34,36,38,40,42,44,46,48,50,52,54,56,58,60,62,64,66,68,70,72,74,76,78,80,82,84,86,88,90,92,94,96,98,100,102,104,106,108,110,112,114,116,118,120,122,124,126,-1,-1,-1,-1,-1,-1,-1,-1,-1,-1,-1,-1,-1,-1,-1,-1,-1,-1,-1,-1,-1,-1,-1,-1,-1,-1,-1,-1,-1,-1,-1,-1,-1,-1,-1,-1,-1,-1,-1,-1,-1,-1,-1,-1,-1,-1,-1,-1,-1,-1,-1,-1,-1,-1,-1,-1,-1,-1,-1,-1,-1,-1,-1,-1],"split_conditions":[6.5E1,5.2E1,8.2E1,5.2E1,4.5E1,4.3E1,1.4E0,1.0116E3,7E-1,6.3E1,1.0154E3,9E-1,3E-1,2.5E0,8.6E1,3.5E1,4.3E1,1.0176E3,1.018E3,1.0112E3,5.7E1,1.0078E3,1.5E0,1.015E3,3.1E1,1.58E1,1.0121E3,9.7E1,-3.5E0,3.1E1,1.025E3,4.9E1,2.59E1,3.9E1,1.0177E3,2.39E1,2.6E1,3.7E1,6E0,1.6E1,2.2E1,2.16E1,4.6E1,3.85E1,7E1,5.4E1,1.0237E3,2E1,1.0254E3,1.22E1,7E1,1.015E3,4.8E1,5.7E1,8.7E0,9.6E0,6E-1,1E1,1.7E1,1.0311E3,1.9E0,3.48E1,9.6E1,-6.385268E-2,-4.0807344E-2,2.2809634E-3,-2.3493601E-2,-6.934398E-2,-5.5951476E-2,-3.3404484E-2,-5.8580257E-2,-9.947176E-4,-2.4528056E-2,-6.1133213E-2,-3.7502255E-2,1.2803834E-3,2.811907E-2,-2.4042046E-2,1.2755193E-2,-4.768795E-2,-7.3622013E-3,-7.400637E-2,-3.8052272E-2,-4.2117324E-2,4.099132E-3,3.4660887E-2,-6.35254E-2,5.473404E-2,-1.9909868E-2,1.4189246E-2,4.509436E-2,-2.9228011E-2,-4.900783E-5,1.4673683E-2,6.0116943E-2,4.1994955E-2,1.4327717E-2,-2.3852894E-3,-3.7446756E-2,-3.134145E-3,3.0999443E-2,2.7329346E-2,4.680697E-2,5.8063008E-2,2.8486121E-2,-1.7732944E-3,2.9668972E-2,5.750097E-2,7.026559E-2,2.8881267E-2,5.1232733E-2,-2.7133746E-2,4.937448E-2,5.0823487E-2,1.0222636E-2,-2.5644756E-3,5.6256164E-2,4.622258E-2,6.9311656E-2,4.3312397E-2,-4.1047018E-2,5.524959E-2,7.031685E-2,7.3516175E-2,-9.935953E-4,6.1585225E-2,1.4820998E-2],"split_indices":[11,5,11,11,11,5,1,13,3,5,13,3,3,3,11,11,11,13,13,13,10,13,3,13,5,1,13,11,1,5,13,10,2,5,13,2,5,5,3,11,11,2,0,2,10,11,13,2,13,1,11,13,5,5,14,2,1,3,9,12,3,2,10,0,0,0,0,0,0,0,0,0,0,0,0,0,0,0,0,0,0,0,0,0,0,0,0,0,0,0,0,0,0,0,0,0,0,0,0,0,0,0,0,0,0,0,0,0,0,0,0,0,0,0,0,0,0,0,0,0,0,0,0,0,0,0,0],"split_type":[0,0,0,0,0,0,0,0,0,0,0,0,0,0,0,0,0,0,0,0,0,0,0,0,0,0,0,0,0,0,0,0,0,0,0,0,0,0,0,0,0,0,0,0,0,0,0,0,0,0,0,0,0,0,0,0,0,0,0,0,0,0,0,0,0,0,0,0,0,0,0,0,0,0,0,0,0,0,0,0,0,0,0,0,0,0,0,0,0,0,0,0,0,0,0,0,0,0,0,0,0,0,0,0,0,0,0,0,0,0,0,0,0,0,0,0,0,0,0,0,0,0,0,0,0,0,0],"sum_hessian":[2.923273E4,1.8225389E4,1.1007342E4,1.4568958E4,3.65643E3,6.6126724E3,4.39467E3,8.55546E3,6.013498E3,1.7780942E3,1.8783358E3,3.7994626E3,2.8132097E3,1.8309436E2,4.211575E3,2.1332686E3,6.4221914E3,4.2390386E3,1.7744595E3,1.0476027E3,7.304915E2,1.3897208E3,4.88615E2,2.2801777E3,1.519285E3,1.0965309E3,1.7166787E3,1.12007286E2,7.108708E1,1.0504568E3,3.1611184E3,1.0010813E3,1.1321873E3,4.0229985E3,2.399193E3,2.6245334E3,1.6145049E3,1.2067506E3,5.677089E2,5.387899E2,5.088128E2,4.6161282E2,2.6887866E2,5.645553E2,8.251655E2,2.9922147E2,1.8939352E2,8.661778E2,1.4139999E3,4.7342133E2,1.0458638E3,6.2920264E2,4.6732828E2,8.472498E2,8.6942896E2,6.8720795E1,4.328649E1,1.1571015E1,5.9516064E1,1.7936543E2,8.7109143E2,3.0449268E3,1.1619164E2,5.354325E2,4.6564883E2,4.559024E2,6.762849E2,2.2556812E3,1.7673175E3,1.2213875E3,1.1778055E3,1.1984967E3,1.4260367E3,3.5103302E2,1.2634719E3,4.0436337E2,8.023872E2,4.027835E2,1.6492542E2,1.096215E2,4.291684E2,1.0290355E2,4.0590924E2,9.628202E1,3.653308E2,2.5721017E2,1.1668508E1,5.5852356E2,6.031749E0,3.7525974E2,4.499058E2,1.244945E2,1.7472697E2,1.5528581E2,3.410772E1,2.1507108E2,6.511067E2,1.1870748E3,2.2692506E2,2.10724E2,2.6269733E2,3.3790424E2,7.079595E2,3.3828546E2,2.9091714E2,1.4199876E2,3.2532953E2,4.3148578E2,4.15764E2,8.40056E1,7.8542334E2,4.0346657E1,2.837414E1,3.7953445E1,5.333049E0,6.069899E0,5.5011163E0,1.5249426E1,4.4266636E1,1.7318605E2,6.179374E0,4.2098914E2,4.5010226E2,3.034152E3,1.077482E1,7.964744E1,3.6544205E1],"tree_param":{"num_deleted":"0","num_feature":"17","num_nodes":"127","size_leaf_vector":"1"}},{"base_weights":[1.9086448E-3,-4.0193385E-1,6.5152645E-1,-5.6159604E-1,1.7974025E-1,-2.8155958E-2,7.939184E-1,-9.757154E-1,-3.715534E-1,-2.3701169E-1,5.312338E-1,-3.0842987E-1,3.5198098E-1,5.79634E-1,1.0811477E0,-5.00268E-1,-1.0526043E0,-1.675546E-1,-8.210989E-1,1.2455801E-1,-5.3033346E-1,8.184632E-1,1.8978281E-1,-5.7137376E-1,-2.8863836E-2,7.2044946E-2,6.702893E-1,3.0679536E-1,7.973282E-1,8.685563E-1,1.2080425E0,7.305629E-1,-6.208143E-1,-9.2657423E-1,-1.3089476E0,9.416945E-2,-4.1030145E-1,-7.5680625E-1,-1.2602866E0,4.343852E-1,-2.781553E-1,-1.1532056E0,-3.952836E-1,1.0829618E0,6.272184E-1,-8.621718E-2,5.585306E-1,-6.1474466E-1,9.1788256E-1,-5.068642E-1,1.4467148E-1,-1.3690607E-1,6.9161123E-1,1.0878595E0,3.94592E-1,5.0752604E-1,-7.7442884E-2,4.1869748E-1,9.3032545E-1,7.110402E-1,1.0317816E0,1.0473791E0,1.3341364E0,7.5118504E-2,-2.1160776E-3,-6.096081E-4,-3.9029565E-2,-3.6324378E-2,-5.5509795E-2,-6.9009915E-2,-5.1978804E-2,3.0799517E-2,-6.458716E-3,9.650162E-3,-2.8836614E-2,-3.1257596E-2,-4.9152344E-2,-6.872864E-2,-6.6066063E-3,3.3836987E-2,-9.294646E-3,-1.774232E-2,4.332563E-2,-6.4771004E-2,8.0287205E-3,-3.958196E-3,-4.1620843E-2,3.8721226E-2,5.9309464E-2,4.611539E-2,1.676026E-2,-2.480039E-2,7.327784E-3,6.343249E-2,2.4024364E-2,-1.8665796E-2,-4.3969177E-2,5.652007E-2,-4.8380204E-2,3.3555593E-2,-3.5695184E-2,1.9219613E-2,-5.8500557E-3,1.1649835E-2,-2.0522533E-2,-5.713687E-3,4.4234436E-2,5.590724E-2,-3.111055E-2,1.1990149E-2,3.8638692E-2,1.0148423E-2,3.3727463E-2,-1.901933E-2,8.177402E-3,3.405803E-2,1.201209E-2,3.501598E-2,5.3233635E-2,4.7272436E-2,2.7384091E-2,5.2112263E-2,-2.4251327E-2,6.162374E-2,4.222191E-2,6.98051E-2,6.1417844E-2],"categories":[],"categories_nodes":[],"categories_segments":[],"categories_sizes":[],"default_left":[0,0,0,0,0,0,0,0,0,0,0,0,0,0,0,0,0,0,0,0,0,0,0,0,0,0,0,0,0,0,0,0,0,0,0,0,0,0,0,0,0,0,0,0,0,0,0,0,0,0,0,0,0,0,0,0,0,0,0,0,0,0,0,0,0,0,0,0,0,0,0,0,0,0,0,0,0,0,0,0,0,0,0,0,0,0,0,0,0,0,0,0,0,0,0,0,0,0,0,0,0,0,0,0,0,0,0,0,0,0,0,0,0,0,0,0,0,0,0,0,0,0,0,0,0,0,0],"id":7,"left_children":[1,3,5,7,9,11,13,15,17,19,21,23,25,27,29,31,33,35,37,39,41,43,45,47,49,51,53,55,57,59,61,63,65,67,69,71,73,75,77,79,81,83,85,87,89,91,93,95,97,99,101,103,105,107,109,111,113,115,117,119,121,123,125,-1,-1,-1,-1,-1,-1,-1,-1,-1,-1,-1,-1,-1,-1,-1,-1,-1,-1,-1,-1,-1,-1,-1,-1,-1,-1,-1,-1,-1,-1,-1,-1,-1,-1,-1,-1,-1,-1,-1,-1,-1,-1,-1,-1,-1,-1,-1,-1,-1,-1,-1,-1,-1,-1,-1,-1,-1,-1,-1,-1,-1,-1,-1,-1],"loss_changes":[7.6282163E3,1.6653328E3,1.0788159E3,1.1068765E3,5.659218E2,2.0591606E2,5.666074E2,1.6123193E2,8.843894E2,1.875605E2,2.0536926E2,8.17584E1,7.304221E1,3.1338684E2,1.0514795E2,9.2129654E1,1.218125E2,4.2162622E2,8.404968E1,9.901861E1,8.1664825E1,5.6878235E1,9.762215E1,3.7587677E1,4.488503E1,5.67407E1,4.374408E1,1.809069E2,1.474773E2,3.718982E1,4.8491943E1,3.3215553E1,5.4768265E1,9.311328E1,2.260791E1,3.723118E2,3.4580548E2,7.7676636E1,4.918866E1,6.7527885E1,3.0616587E1,3.261145E1,1.1101057E2,1.4245178E1,5.6800385E1,5.2458668E1,2.2142624E1,3.5296402E1,7.7541723E0,3.5625786E1,2.495538E1,3.3288555E1,1.7297375E1,8.56897E0,1.34356E1,7.8223694E1,5.887315E1,3.5673447E1,6.6378296E1,2.8348999E1,1.1967407E1,3.9810303E1,7.305176E0,0E0,0E0,0E0,0E0,0E0,0E0,0E0,0E0,0E0,0E0,0E0,0E0,0E0,0E0,0E0,0E0,0E0,0E0,0E0,0E0,0E0,0E0,0E0,0E0,0E0,0E0,0E0,0E0,0E0,0E0,0E0,0E0,0E0,0E0,0E0,0E0,0E0,0E0,0E0,0E0,0E0,0E0,0E0,0E0,0E0,0E0,0E0,0E0,0E0,0E0,0E0,0E0,0E0,0E0,0E0,0E0,0E0,0E0,0E0,0E0,0E0,0E0,0E0,0E0],"parents":[2147483647,0,0,1,1,2,2,3,3,4,4,5,5,6,6,7,7,8,8,9,9,10,10,11,11,12,12,13,13,14,14,15,15,16,16,17,17,18,18,19,19,20,20,21,21,22,22,23,23,24,24,25,25,26,26,27,27,28,28,29,29,30,30,31,31,32,32,33,33,34,34,35,35,36,36,37,37,38,38,39,39,40,40,41,41,42,42,43,43,44,44,45,45,46,46,47,47,48,48,49,49,50,50,51,51,52,52,53,53,54,54,55,55,56,56,57,57,58,58,59,59,60,60,61,61,62,62],"right_children":[2,4,6,8,10,12,14,16,18,20,22,24,26,28,30,32,34,36,38,40,42,44,46,48,50,52,54,56,58,60,62,64,66,68,70,72,74,76,78,80,82,84,86,88,90,92,94,96,98,100,102,104,106,108,110,112,114,116,118,120,122,124,126,-1,-1,-1,-1,-1,-1,-1,-1,-1,-1,-1,-1,-1,-1,-1,-1,-1,-1,-1,-1,-1,-1,-1,-1,-1,-1,-1,-1,-1,-1,-1,-1,-1,-1,-1,-1,-1,-1,-1,-1,-1,-1,-1,-1,-1,-1,-1,-1,-1,-1,-1,-1,-1,-1,-1,-1,-1,-1,-1,-1,-1,-1,-1,-1],"split_conditions":[4E-1,5E1,7E1,6.1E1,5.9E1,5E1,4.4E1,1.0118E3,1.0191E3,1.0094E3,1.0127E3,6.4E1,6.3E1,3E0,8.3E1,2E0,2.94E1,2.35E1,1.0311E3,9E0,3E0,2.16E1,5.7E1,3.3E1,3.5E1,7E1,1.0099E3,1.019E3,8.3E1,5.6E1,5.9E0,2.77E1,2.5E1,7E0,4.4E1,1.0133E3,1.0087E3,2.05E1,4.1E1,3.61E1,1E-1,5.7E1,8E0,6.8E1,2.6E1,6.9E1,1.5E1,1.0153E3,2.55E1,1.0105E3,2E1,1.86E1,4.8E1,3.32E1,6.3E1,8.2E1,3.1E1,1.0138E3,3.3E1,2.2E1,4.8E1,1.0134E3,1.1E1,7.5118504E-2,-2.1160776E-3,-6.096081E-4,-3.9029565E-2,-3.6324378E-2,-5.5509795E-2,-6.9009915E-2,-5.1978804E-2,3.0799517E-2,-6.458716E-3,9.650162E-3,-2.8836614E-2,-3.1257596E-2,-4.9152344E-2,-6.872864E-2,-6.6066063E-3,3.3836987E-2,-9.294646E-3,-1.774232E-2,4.332563E-2,-6.4771004E-2,8.0287205E-3,-3.958196E-3,-4.1620843E-2,3.8721226E-2,5.9309464E-2,4.611539E-2,1.676026E-2,-2.480039E-2,7.327784E-3,6.343249E-2,2.4024364E-2,-1.8665796E-2,-4.3969177E-2,5.652007E-2,-4.8380204E-2,3.3555593E-2,-3.5695184E-2,1.9219613E-2,-5.8500557E-3,1.1649835E-2,-2.0522533E-2,-5.713687E-3,4.4234436E-2,5.590724E-2,-3.111055E-2,1.1990149E-2,3.8638692E-2,1.0148423E-2,3.3727463E-2,-1.901933E-2,8.177402E-3,3.405803E-2,1.201209E-2,3.501598E-2,5.3233635E-2,4.7272436E-2,2.7384091E-2,5.2112263E-2,-2.4251327E-2,6.162374E-2,4.222191E-2,6.98051E-2,6.1417844E-2],"split_indices":[3,5,10,10,10,5,5,12,13,13,13,10,10,3,10,0,2,2,12,7,4,2,5,8,5,5,13,13,10,5,3,2,2,6,5,13,13,2,5,2,3,10,6,10,9,10,9,13,2,12,9,2,10,3,5,10,5,12,5,9,0,13,6,0,0,0,0,0,0,0,0,0,0,0,0,0,0,0,0,0,0,0,0,0,0,0,0,0,0,0,0,0,0,0,0,0,0,0,0,0,0,0,0,0,0,0,0,0,0,0,0,0,0,0,0,0,0,0,0,0,0,0,0,0,0,0,0],"split_type":[0,0,0,0,0,0,0,0,0,0,0,0,0,0,0,0,0,0,0,0,0,0,0,0,0,0,0,0,0,0,0,0,0,0,0,0,0,0,0,0,0,0,0,0,0,0,0,0,0,0,0,0,0,0,0,0,0,0,0,0,0,0,0,0,0,0,0,0,0,0,0,0,0,0,0,0,0,0,0,0,0,0,0,0,0,0,0,0,0,0,0,0,0,0,0,0,0,0,0,0,0,0,0,0,0,0,0,0,0,0,0,0,0,0,0,0,0,0,0,0,0,0,0,0,0,0,0],"sum_hessian":[2.9075234E4,1.792952E4,1.1145715E4,1.4068052E4,3.8614675E3,1.9306945E3,9.2150205E3,4.423886E3,9.644166E3,1.7668772E3,2.0945903E3,1.1114293E3,8.192651E2,5.279399E3,3.9356216E3,6.168795E2,3.8070066E3,6.634759E3,3.0094072E3,7.916309E2,9.752463E2,1.136862E3,9.577283E2,5.722035E2,5.392258E2,4.3655945E2,3.8270566E2,2.3440198E3,2.935379E3,1.4740084E3,2.461613E3,5.457583E1,5.6230365E2,2.5553123E3,1.2516943E3,3.1928806E3,3.4418782E3,2.627492E3,3.8191534E2,4.473691E2,3.4426178E2,1.7243027E2,8.02816E2,4.751078E2,6.6175433E2,5.4818756E2,4.095407E2,5.5658167E2,1.5621838E1,1.4311018E2,3.9611563E2,3.2704227E2,1.0951718E2,1.5102216E2,2.316835E2,1.5394644E3,8.045555E2,7.641277E2,2.1712512E3,7.528485E2,7.211599E2,1.0865211E3,1.375092E3,2.683469E1,2.7741137E1,1.1714633E2,4.4515732E2,1.2252034E3,1.3301089E3,9.8660626E2,2.6508807E2,9.564562E2,2.2364243E3,7.441622E2,2.697716E3,1.6633281E3,9.641639E2,3.4658643E2,3.532892E1,3.216164E2,1.25752716E2,3.232917E2,2.0970083E1,1.5560074E2,1.6829538E1,4.6658145E2,3.3623453E2,1.21238716E2,3.5386908E2,3.2806995E2,3.336844E2,1.981749E2,3.5001266E2,3.904185E1,3.7049887E2,2.9231488E2,2.6426678E2,1.4399321E1,1.2225174E0,2.1057804E1,1.22052376E2,2.0648436E2,1.8963126E2,1.3909637E2,1.8794589E2,2.1246147E1,8.8271034E1,1.487342E2,2.2879379E0,1.6555591E2,6.612759E1,5.4602783E2,9.934365E2,3.5620303E2,4.4835245E2,3.081298E2,4.5599786E2,8.028924E2,1.3683588E3,3.072202E2,4.4562827E2,7.165297E2,4.630153E0,5.655911E2,5.2093E2,8.594366E2,5.156554E2],"tree_param":{"num_deleted":"0","num_feature":"17","num_nodes":"127","size_leaf_vector":"1"}},{"base_weights":[-2.4167018E-3,-5.89496E-1,7.2120667E-1,-7.7394456E-1,2.7217444E-3,4.1175884E-1,1.2443973E0,-1.1205558E0,-5.257984E-1,-3.5251623E-1,4.2227262E-1,2.1127217E-1,8.9395493E-1,1.029697E0,1.3515496E0,-1.3443576E0,-1.0284834E0,-6.227555E-1,1.1315546E-1,-1.3434999E-1,-8.0839485E-1,2.3168528E-1,7.568459E-1,4.8313905E-2,6.118154E-1,6.4294064E-1,1.047194E0,5.2111226E-1,1.0983E0,7.40739E-1,1.3826139E0,-7.7944255E-1,-1.3698318E0,-8.8366383E-1,-1.2433642E0,-9.4044894E-1,-4.8546827E-1,-4.1982418E-1,3.9115128E-1,-1.066837E0,2.7492E-2,1.0931294E-3,-9.2543155E-1,5.044226E-1,-5.7572972E-2,4.9709377E-1,9.092755E-1,-1.310669E-1,2.5925654E-1,1.576027E-1,7.45429E-1,8.404458E-1,3.817966E-1,9.662197E-1,1.3046479E0,5.8126616E-1,-1.369577E0,8.922508E-1,1.2260971E0,-6.497472E-2,7.716967E-1,1.3868703E0,-1.0902748E0,-6.404702E-2,2.333771E-2,-6.870457E-2,1.7066164E-2,-5.6138605E-2,-2.8113594E-2,-5.4461177E-2,-6.681501E-2,-5.808952E-2,-4.1171934E-2,-1.4336966E-2,-3.5343204E-2,-3.123877E-2,8.554223E-3,-1.3573638E-2,2.6162198E-2,-6.1320145E-2,2.1372952E-2,-3.7262414E-2,9.394548E-3,-6.615244E-2,1.129609E-2,-5.8112126E-2,-3.179076E-2,9.169492E-3,3.5304606E-2,1.4133302E-2,-1.6016252E-2,4.9291853E-2,1.8618377E-2,6.2190634E-3,4.839417E-2,-3.78473E-2,-3.7732266E-3,1.2242285E-4,2.1354496E-2,-6.402984E-2,1.1761542E-2,3.371105E-2,5.602047E-2,-5.751286E-2,4.3784738E-2,1.5315253E-3,4.6931934E-2,1.3509894E-2,5.024732E-2,-1.1673763E-2,6.5669745E-2,8.578629E-3,4.3583166E-2,-9.0536654E-2,1.9643521E-2,-5.661094E-2,4.562069E-2,5.48562E-2,6.544074E-2,9.834929E-3,4.436755E-2,7.025246E-2,5.689031E-2,-7.614564E-2,2.0715106E-2],"categories":[],"categories_nodes":[],"categories_segments":[],"categories_sizes":[],"default_left":[0,0,0,0,0,0,0,0,0,0,0,0,0,0,0,0,0,0,0,0,0,0,0,0,0,0,0,0,0,0,0,0,0,0,0,0,0,0,0,0,0,0,0,0,0,0,0,0,0,0,0,0,0,0,0,0,0,0,0,0,0,0,0,0,0,0,0,0,0,0,0,0,0,0,0,0,0,0,0,0,0,0,0,0,0,0,0,0,0,0,0,0,0,0,0,0,0,0,0,0,0,0,0,0,0,0,0,0,0,0,0,0,0,0,0,0,0,0,0,0,0,0,0,0,0],"id":8,"left_children":[1,3,5,7,9,11,13,15,17,19,21,23,25,27,29,31,33,35,37,39,41,43,45,47,49,51,53,55,57,59,61,63,65,67,69,71,73,75,77,79,81,83,85,87,89,91,93,95,97,99,101,103,105,107,109,111,113,115,117,-1,119,121,123,-1,-1,-1,-1,-1,-1,-1,-1,-1,-1,-1,-1,-1,-1,-1,-1,-1,-1,-1,-1,-1,-1,-1,-1,-1,-1,-1,-1,-1,-1,-1,-1,-1,-1,-1,-1,-1,-1,-1,-1,-1,-1,-1,-1,-1,-1,-1,-1,-1,-1,-1,-1,-1,-1,-1,-1,-1,-1,-1,-1,-1,-1],"loss_changes":[1.2313823E4,1.7480303E3,2.1014429E3,1.0489272E3,5.667148E2,7.88614E2,1.0960205E2,1.0350537E2,4.407328E2,2.0467703E2,1.1099301E2,3.7623077E2,9.1485596E1,5.561621E1,5.9981934E1,2.0236816E1,1.1126294E2,2.6891406E2,1.3914413E2,2.1037372E2,6.3120575E1,8.776718E1,2.4581573E1,1.5511989E2,1.0104773E2,4.66557E1,2.9720581E1,2.2782158E1,3.6248413E1,1.0966866E1,3.3703125E1,4.196977E1,1.0784424E1,1.6539417E2,1.9333984E1,4.7281128E1,1.8962769E2,3.910608E1,5.4144875E1,4.9679474E1,1.4746733E2,2.5650587E1,3.918283E1,3.693672E1,4.842108E1,1.4020634E1,1.8152893E1,7.704845E1,8.1197426E1,4.274488E1,3.3630432E1,3.7338287E1,7.7024185E1,3.0305298E1,5.052185E0,2.2224121E1,5.5776615E0,2.3342072E1,7.873047E0,0E0,1.0201332E1,1.2227051E1,4.4161224E0,0E0,0E0,0E0,0E0,0E0,0E0,0E0,0E0,0E0,0E0,0E0,0E0,0E0,0E0,0E0,0E0,0E0,0E0,0E0,0E0,0E0,0E0,0E0,0E0,0E0,0E0,0E0,0E0,0E0,0E0,0E0,0E0,0E0,0E0,0E0,0E0,0E0,0E0,0E0,0E0,0E0,0E0,0E0,0E0,0E0,0E0,0E0,0E0,0E0,0E0,0E0,0E0,0E0,0E0,0E0,0E0,0E0,0E0,0E0,0E0,0E0,0E0],"parents":[2147483647,0,0,1,1,2,2,3,3,4,4,5,5,6,6,7,7,8,8,9,9,10,10,11,11,12,12,13,13,14,14,15,15,16,16,17,17,18,18,19,19,20,20,21,21,22,22,23,23,24,24,25,25,26,26,27,27,28,28,29,29,30,30,31,31,32,32,33,33,34,34,35,35,36,36,37,37,38,38,39,39,40,40,41,41,42,42,43,43,44,44,45,45,46,46,47,47,48,48,49,49,50,50,51,51,52,52,53,53,54,54,55,55,56,56,57,57,58,58,60,60,61,61,62,62],"right_children":[2,4,6,8,10,12,14,16,18,20,22,24,26,28,30,32,34,36,38,40,42,44,46,48,50,52,54,56,58,60,62,64,66,68,70,72,74,76,78,80,82,84,86,88,90,92,94,96,98,100,102,104,106,108,110,112,114,116,118,-1,120,122,124,-1,-1,-1,-1,-1,-1,-1,-1,-1,-1,-1,-1,-1,-1,-1,-1,-1,-1,-1,-1,-1,-1,-1,-1,-1,-1,-1,-1,-1,-1,-1,-1,-1,-1,-1,-1,-1,-1,-1,-1,-1,-1,-1,-1,-1,-1,-1,-1,-1,-1,-1,-1,-1,-1,-1,-1,-1,-1,-1,-1,-1,-1],"split_conditions":[6.1E1,5E1,8E1,4.3E1,4.5E1,4.8E1,8.6E1,2.5E1,3E0,8E0,6.1E1,2.1E0,4E-1,2.8E1,1.4E0,1E0,8E0,3.1E1,3.7E1,3E0,9E0,2E1,6.5E1,6.9E1,3.1E1,3E1,6.7E1,1.7E1,5E-1,1.7E1,3.31E1,4.1E1,3.5E1,3.9E1,1.1E1,6E0,8E0,1.8E1,6.7E1,5E0,1.6E1,1.7E1,5.6E1,7E1,8E0,1.5E1,1.13E1,1.4E1,3.3E1,1.22E1,2.23E1,-1E0,6.1E1,4.9E0,8.2E0,9.6E0,5.9E0,3.5E0,4.1E1,-6.497472E-2,-3.5E0,1E2,2.53E1,-6.404702E-2,2.333771E-2,-6.870457E-2,1.7066164E-2,-5.6138605E-2,-2.8113594E-2,-5.4461177E-2,-6.681501E-2,-5.808952E-2,-4.1171934E-2,-1.4336966E-2,-3.5343204E-2,-3.123877E-2,8.554223E-3,-1.3573638E-2,2.6162198E-2,-6.1320145E-2,2.1372952E-2,-3.7262414E-2,9.394548E-3,-6.615244E-2,1.129609E-2,-5.8112126E-2,-3.179076E-2,9.169492E-3,3.5304606E-2,1.4133302E-2,-1.6016252E-2,4.9291853E-2,1.8618377E-2,6.2190634E-3,4.839417E-2,-3.78473E-2,-3.7732266E-3,1.2242285E-4,2.1354496E-2,-6.402984E-2,1.1761542E-2,3.371105E-2,5.602047E-2,-5.751286E-2,4.3784738E-2,1.5315253E-3,4.6931934E-2,1.3509894E-2,5.024732E-2,-1.1673763E-2,6.5669745E-2,8.578629E-3,4.3583166E-2,-9.0536654E-2,1.9643521E-2,-5.661094E-2,4.562069E-2,5.48562E-2,6.544074E-2,9.834929E-3,4.436755E-2,7.025246E-2,5.689031E-2,-7.614564E-2,2.0715106E-2],"split_indices":[11,5,11,11,11,5,11,11,3,6,5,3,3,5,1,0,6,5,5,4,8,8,10,11,5,9,5,9,3,5,15,5,8,5,8,1,6,1,10,6,11,11,10,10,6,2,15,2,5,15,1,1,5,1,2,1,3,15,5,0,1,10,1,0,0,0,0,0,0,0,0,0,0,0,0,0,0,0,0,0,0,0,0,0,0,0,0,0,0,0,0,0,0,0,0,0,0,0,0,0,0,0,0,0,0,0,0,0,0,0,0,0,0,0,0,0,0,0,0,0,0,0,0,0,0],"split_type":[0,0,0,0,0,0,0,0,0,0,0,0,0,0,0,0,0,0,0,0,0,0,0,0,0,0,0,0,0,0,0,0,0,0,0,0,0,0,0,0,0,0,0,0,0,0,0,0,0,0,0,0,0,0,0,0,0,0,0,0,0,0,0,0,0,0,0,0,0,0,0,0,0,0,0,0,0,0,0,0,0,0,0,0,0,0,0,0,0,0,0,0,0,0,0,0,0,0,0,0,0,0,0,0,0,0,0,0,0,0,0,0,0,0,0,0,0,0,0,0,0,0,0,0,0],"sum_hessian":[2.8983682E4,1.6001648E4,1.2982033E4,1.2201224E4,3.800425E3,8.158419E3,4.8236147E3,5.089158E3,7.1120654E3,2.05803E3,1.742395E3,5.763513E3,2.3949058E3,1.6094269E3,3.2141877E3,1.4794452E3,3.609713E3,6.1750645E3,9.3700073E2,1.3927888E3,6.652412E2,1.1111365E3,6.312586E2,4.097567E3,1.6659462E3,9.09799E2,1.4851067E3,1.9231416E2,1.4171127E3,1.5675641E2,3.0574312E3,6.5198715E1,1.4142466E3,2.1594553E3,1.4502576E3,1.8615172E3,4.3135474E3,3.2102136E2,6.159794E2,2.051547E2,1.1876342E3,8.415705E1,5.8108417E2,5.7151733E2,5.396191E2,2.3502257E2,3.9623605E2,2.214654E3,1.8829128E3,3.791669E2,1.2867793E3,5.16755E2,3.9304398E2,1.1333873E3,3.517193E2,1.870554E2,5.258764E0,5.4552924E2,8.715835E2,1.730542E0,1.5502586E2,3.0526162E3,4.814967E0,4.6470184E1,1.8728535E1,1.4109313E3,3.3152385E0,1.2368062E3,9.226491E2,5.502875E2,8.9997015E2,6.406703E2,1.2208468E3,2.2743467E3,2.0392007E3,2.3830882E2,8.271255E1,1.0220872E2,5.137706E2,1.8552318E2,1.9631508E1,2.0351778E2,9.8411633E2,1.1506158E1,7.2650894E1,3.1802847E2,2.630557E2,2.2124005E2,3.5027728E2,2.3510486E2,3.0451425E2,4.637944E1,1.8864313E2,2.7748068E1,3.68488E2,1.7966547E2,2.0349886E3,7.4459503E2,1.1383177E3,1.8624186E1,3.6054272E2,1.0837714E3,2.0300797E2,8.440507E0,5.083145E2,2.4168382E2,1.5136015E2,6.0158283E1,1.0732291E3,1.8435667E0,3.4987573E2,7.825033E1,1.0880507E2,4.18406E0,1.0747037E0,4.8358088E0,5.406934E2,3.461427E2,5.254408E2,2.6412363E1,1.2861351E2,2.840639E3,2.1197748E2,3.7301764E0,1.084791E0],"tree_param":{"num_deleted":"0","num_feature":"17","num_nodes":"125","size_leaf_vector":"1"}},{"base_weights":[6.7805406E-3,-4.3760034E-1,8.633341E-1,-7.354313E-1,-5.810326E-2,5.676238E-1,1.2527388E0,-8.883903E-1,-7.363078E-2,-2.9778996E-1,4.5883533E-1,3.2347894E-1,8.9270055E-1,7.8906417E-1,1.285983E0,-1.1338379E0,-7.514162E-1,2.862059E-1,-4.3765262E-1,1.4348948E-1,-4.4420105E-1,8.103027E-1,2.6987445E-1,1.5537357E-1,6.779945E-1,6.238999E-1,1.059907E0,6.936495E-2,6.155074E-1,1.0960324E0,1.3500439E0,-9.6585757E-1,-1.2986852E0,-9.8695934E-1,-5.3314704E-1,-9.981146E-1,4.4731465E-1,-6.8706423E-1,3.390605E-2,4.6323073E-1,-9.802514E-2,-5.6983566E-1,-7.8284875E-2,5.9703463E-1,1.0249194E0,1.5440962E-1,7.6542246E-1,2.66322E-1,-5.6084716E-1,7.4629135E-2,7.5757325E-1,7.693507E-1,1.861772E-1,9.099227E-1,1.1930131E0,1.0292468E-1,9.2872053E-1,7.521438E-1,1.1625041E0,1.3535378E0,-7.0860036E-2,-1.9111833E-2,-5.2515566E-2,-6.745314E-2,-5.1524382E-2,-4.921895E-3,-5.148697E-2,-8.099419E-3,-4.1301835E-2,1.8598417E-2,-5.385546E-2,-1.8241392E-2,2.882199E-2,-4.080078E-2,1.2338874E-2,-1.330696E-2,2.1520821E-2,2.911893E-2,-1.4402322E-2,-1.630838E-2,1.1519182E-2,-2.3366153E-2,-4.2999856E-2,-1.6692063E-2,1.4426119E-2,3.227365E-2,-1.9814016E-2,5.5898543E-2,3.7439417E-2,-6.333795E-5,2.374718E-2,5.565861E-2,3.125563E-2,2.9070944E-2,7.083207E-3,-1.9512374E-2,-6.723702E-2,-7.991284E-2,1.2046839E-2,-2.2812713E-2,3.918116E-2,-5.1823366E-2,4.0355347E-2,2.2671193E-2,-1.7714463E-2,4.9308535E-2,3.270894E-2,-2.5667108E-3,6.0373068E-2,-1.794336E-2,2.938502E-2,3.441734E-2,5.6924284E-2,3.9603177E-2,-4.0743627E-2,4.9984425E-2,6.346944E-2,6.878452E-2,5.6988336E-2],"categories":[],"categories_nodes":[],"categories_segments":[],"categories_sizes":[],"default_left":[0,0,0,0,0,0,0,0,0,0,0,0,0,0,0,0,0,0,0,0,0,0,0,0,0,0,0,0,0,0,0,0,0,0,0,0,0,0,0,0,0,0,0,0,0,0,0,0,0,0,0,0,0,0,0,0,0,0,0,0,0,0,0,0,0,0,0,0,0,0,0,0,0,0,0,0,0,0,0,0,0,0,0,0,0,0,0,0,0,0,0,0,0,0,0,0,0,0,0,0,0,0,0,0,0,0,0,0,0,0,0,0,0,0,0,0,0,0,0],"id":9,"left_children":[1,3,5,7,9,11,13,15,17,19,21,23,25,27,29,31,33,35,37,39,41,43,45,47,49,51,53,-1,55,57,59,61,63,65,67,69,71,73,75,77,79,81,83,85,87,89,91,93,95,97,99,101,103,105,107,109,111,113,115,117,-1,-1,-1,-1,-1,-1,-1,-1,-1,-1,-1,-1,-1,-1,-1,-1,-1,-1,-1,-1,-1,-1,-1,-1,-1,-1,-1,-1,-1,-1,-1,-1,-1,-1,-1,-1,-1,-1,-1,-1,-1,-1,-1,-1,-1,-1,-1,-1,-1,-1,-1,-1,-1,-1,-1,-1,-1,-1,-1],"loss_changes":[1.0947123E4,2.1402231E3,1.1305371E3,1.073918E3,1.0319467E3,4.4301685E2,6.433447E1,2.8887256E2,2.611679E2,3.6769205E2,1.7500848E2,1.9009207E2,1.06989136E2,2.8862488E1,4.663672E1,8.4163086E1,2.839856E2,2.0794107E2,1.1658502E2,1.0957212E2,1.9638281E2,4.159015E1,9.8148544E1,1.7228247E2,4.921933E1,5.8491577E1,2.8365112E1,0E0,3.5810104E1,2.2042969E1,3.0466797E1,7.509509E1,1.9605469E1,1.01026855E2,3.1234747E2,1.25312195E1,9.372298E1,7.826572E1,4.101704E1,5.4815384E1,6.067617E1,9.420422E1,1.025759E2,2.262239E1,1.093515E1,6.956605E1,1.512706E1,7.361801E1,3.83743E1,3.396328E1,2.9023254E1,4.7945435E1,3.3528385E1,1.2962585E1,1.4055908E1,1.9452183E1,6.2096176E0,1.0981445E1,1.3320068E1,1.2398926E1,0E0,0E0,0E0,0E0,0E0,0E0,0E0,0E0,0E0,0E0,0E0,0E0,0E0,0E0,0E0,0E0,0E0,0E0,0E0,0E0,0E0,0E0,0E0,0E0,0E0,0E0,0E0,0E0,0E0,0E0,0E0,0E0,0E0,0E0,0E0,0E0,0E0,0E0,0E0,0E0,0E0,0E0,0E0,0E0,0E0,0E0,0E0,0E0,0E0,0E0,0E0,0E0,0E0,0E0,0E0,0E0,0E0,0E0,0E0],"parents":[2147483647,0,0,1,1,2,2,3,3,4,4,5,5,6,6,7,7,8,8,9,9,10,10,11,11,12,12,13,13,14,14,15,15,16,16,17,17,18,18,19,19,20,20,21,21,22,22,23,23,24,24,25,25,26,26,28,28,29,29,30,30,31,31,32,32,33,33,34,34,35,35,36,36,37,37,38,38,39,39,40,40,41,41,42,42,43,43,44,44,45,45,46,46,47,47,48,48,49,49,50,50,51,51,52,52,53,53,54,54,55,55,56,56,57,57,58,58,59,59],"right_children":[2,4,6,8,10,12,14,16,18,20,22,24,26,28,30,32,34,36,38,40,42,44,46,48,50,52,54,-1,56,58,60,62,64,66,68,70,72,74,76,78,80,82,84,86,88,90,92,94,96,98,100,102,104,106,108,110,112,114,116,118,-1,-1,-1,-1,-1,-1,-1,-1,-1,-1,-1,-1,-1,-1,-1,-1,-1,-1,-1,-1,-1,-1,-1,-1,-1,-1,-1,-1,-1,-1,-1,-1,-1,-1,-1,-1,-1,-1,-1,-1,-1,-1,-1,-1,-1,-1,-1,-1,-1,-1,-1,-1,-1,-1,-1,-1,-1,-1,-1],"split_conditions":[6.7E1,5.2E1,8.2E1,5.4E1,4.4E1,4.3E1,6.5E0,3.3E1,8E0,1.0146E3,1.0118E3,2.1E0,3E-1,1.0176E3,8.6E1,8E0,3.7E1,3E0,4.2E1,2.19E1,7E-1,5.7E1,5.5E0,1.0261E3,2.6E1,2.28E1,5.4E1,6.936495E-2,9.5E1,3.1E1,3.41E1,1.0121E3,4.8E1,1.0103E3,8E0,9E0,1.7E1,2.16E1,1.4E1,2.14E1,2E-1,1.0243E3,2.08E1,3E1,1.92E1,5.6E1,8E0,1.0144E3,1.0322E3,8.7E0,4.2E0,4.4E0,1.0153E3,1.0197E3,5.3E0,1.0177E3,1.3E1,1.0317E3,7E-1,1.0231E3,-7.0860036E-2,-1.9111833E-2,-5.2515566E-2,-6.745314E-2,-5.1524382E-2,-4.921895E-3,-5.148697E-2,-8.099419E-3,-4.1301835E-2,1.8598417E-2,-5.385546E-2,-1.8241392E-2,2.882199E-2,-4.080078E-2,1.2338874E-2,-1.330696E-2,2.1520821E-2,2.911893E-2,-1.4402322E-2,-1.630838E-2,1.1519182E-2,-2.3366153E-2,-4.2999856E-2,-1.6692063E-2,1.4426119E-2,3.227365E-2,-1.9814016E-2,5.5898543E-2,3.7439417E-2,-6.333795E-5,2.374718E-2,5.565861E-2,3.125563E-2,2.9070944E-2,7.083207E-3,-1.9512374E-2,-6.723702E-2,-7.991284E-2,1.2046839E-2,-2.2812713E-2,3.918116E-2,-5.1823366E-2,4.0355347E-2,2.2671193E-2,-1.7714463E-2,4.9308535E-2,3.270894E-2,-2.5667108E-3,6.0373068E-2,-1.794336E-2,2.938502E-2,3.441734E-2,5.6924284E-2,3.9603177E-2,-4.0743627E-2,4.9984425E-2,6.346944E-2,6.878452E-2,5.6988336E-2],"split_indices":[11,11,11,5,5,5,14,11,7,12,12,3,3,12,11,7,5,4,11,15,3,5,3,12,5,15,5,0,11,5,15,12,5,12,7,8,11,1,7,14,3,12,15,8,14,5,4,12,12,14,1,14,12,12,14,12,7,12,3,12,0,0,0,0,0,0,0,0,0,0,0,0,0,0,0,0,0,0,0,0,0,0,0,0,0,0,0,0,0,0,0,0,0,0,0,0,0,0,0,0,0,0,0,0,0,0,0,0,0,0,0,0,0,0,0,0,0,0,0],"split_type":[0,0,0,0,0,0,0,0,0,0,0,0,0,0,0,0,0,0,0,0,0,0,0,0,0,0,0,0,0,0,0,0,0,0,0,0,0,0,0,0,0,0,0,0,0,0,0,0,0,0,0,0,0,0,0,0,0,0,0,0,0,0,0,0,0,0,0,0,0,0,0,0,0,0,0,0,0,0,0,0,0,0,0,0,0,0,0,0,0,0,0,0,0,0,0,0,0,0,0,0,0,0,0,0,0,0,0,0,0,0,0,0,0,0,0,0,0,0,0],"sum_hessian":[2.8758088E4,1.8935053E4,9.823036E3,1.0608511E4,8.326542E3,5.5845996E3,4.238436E3,8.616642E3,1.9918684E3,5.6891177E3,2.6374248E3,3.190448E3,2.3941514E3,2.852088E2,3.9532273E3,3.083663E3,5.532979E3,1.0017999E3,9.900684E2,1.4173323E3,4.271785E3,9.210267E2,1.7163981E3,2.1651895E3,1.0252585E3,9.199587E2,1.4741927E3,6.256374E1,2.2264508E2,1.0015589E3,2.9516685E3,1.5307141E3,1.552949E3,2.6594917E3,2.8734873E3,1.1108238E2,8.907175E2,6.472664E2,3.42802E2,6.094988E2,8.078335E2,3.1795522E3,1.092233E3,4.6386172E2,4.5716492E2,1.3931093E3,3.232889E2,1.875316E3,2.8987354E2,1.1969211E2,9.055664E2,6.899407E2,2.3001797E2,6.9683453E2,7.773582E2,8.4950165E1,1.3769492E2,1.6423106E2,8.373278E2,2.9484565E3,3.211845E0,1.942017E2,1.3365125E3,1.303982E3,2.4896684E2,1.2231754E2,2.537174E3,1.2680847E3,1.6054025E3,5.8533335E0,1.0522905E2,1.2194016E2,7.6877734E2,5.6884283E2,7.8423615E1,1.9532529E2,1.4747673E2,5.262617E2,8.323704E1,4.76689E2,3.311445E2,2.3514185E3,8.281338E2,6.437908E2,4.4844226E2,4.4262747E2,2.1234262E1,3.3965744E2,1.1750747E2,9.3836285E2,4.5474637E2,9.094742E1,2.323415E2,5.3055963E2,1.3447563E3,2.392936E2,5.0579933E1,1.004449E1,1.0964761E2,1.8679043E1,8.868874E2,1.3588191E1,6.7635254E2,1.5402008E2,7.5997894E1,5.345937E2,1.6224086E2,8.893141E0,7.684651E2,4.3639442E1,4.131072E1,6.616113E1,7.1533775E1,1.6063347E2,3.5976017E0,3.359436E2,5.0138422E2,2.6666802E3,2.8177643E2],"tree_param":{"num_deleted":"0","num_feature":"17","num_nodes":"119","size_leaf_vector":"1"}},{"base_weights":[4.2495236E-4,-4.2634243E-1,8.337087E-1,-7.1692204E-1,-5.757848E-2,5.5202705E-1,1.2090486E0,-9.1970193E-1,-2.3607887E-1,-2.2568959E-1,5.6449383E-1,3.1510314E-1,8.6542183E-1,6.7981E-1,1.2368844E0,-7.929772E-1,-1.1712649E0,1.2311882E-1,-5.7421625E-1,2.1771075E-1,-3.6950383E-1,9.2239034E-1,3.1376842E-1,1.4788881E-1,6.720508E-1,6.085478E-1,1.0277199E0,1.0608026E-2,8.0625194E-1,1.0418065E0,1.3028405E0,-1.199262E0,-6.5670574E-1,-1.3328619E0,-1.0672126E0,-9.1639906E-1,3.2098293E-1,-7.4285746E-1,-8.407591E-2,6.6127235E-1,3.0933626E-2,-5.1187164E-1,-8.449885E-3,7.8864133E-1,1.1848415E0,1.0458015E-1,6.51549E-1,2.6151806E-1,-5.0629073E-1,-2.5099823E-1,7.1805495E-1,-1.5672417E0,6.330452E-1,1.1769198E0,8.761993E-1,-3.1648308E-1,9.50262E-1,5.9153247E-1,1.1410469E0,6.457694E-1,1.1230105E0,1.3783844E0,1.2102242E0,-4.5245644E-2,-6.250786E-2,-2.1529313E-2,-4.4339877E-2,-6.7212604E-2,-2.8375689E-2,-4.6780284E-2,-6.1388053E-2,-5.064494E-2,3.1732712E-2,-4.0610667E-2,2.1515546E-2,3.1143982E-2,-3.991403E-2,1.9348092E-2,-2.2542648E-2,1.2411213E-3,3.678422E-2,-1.1729888E-2,2.1252967E-2,-1.7586E-2,-3.8257003E-2,-2.5094217E-2,6.3555925E-3,4.6354473E-2,2.06103E-2,-1.3453217E-2,6.032112E-2,1.4674398E-2,-1.35660935E-2,8.6102225E-3,4.1138876E-2,2.894023E-2,7.4189976E-3,-4.7086958E-2,-8.931292E-3,-5.355949E-2,1.9501353E-2,2.6906112E-2,4.4582352E-2,1.8652698E-2,-9.126357E-2,4.962757E-2,2.4390174E-2,6.3397825E-2,5.107508E-2,4.0818095E-2,6.0480338E-2,1.0955287E-2,-4.2756643E-2,1.1599659E-2,5.8240514E-2,7.217256E-2,2.252121E-2,2.2682399E-2,6.449456E-2,3.4900647E-2,-3.492786E-2,6.585477E-2,5.2138742E-2,6.897093E-2,1.8814191E-2,5.288812E-2,6.471433E-2],"categories":[],"categories_nodes":[],"categories_segments":[],"categories_sizes":[],"default_left":[0,0,0,0,0,0,0,0,0,0,0,0,0,0,0,0,0,0,0,0,0,0,0,0,0,0,0,0,0,0,0,0,0,0,0,0,0,0,0,0,0,0,0,0,0,0,0,0,0,0,0,0,0,0,0,0,0,0,0,0,0,0,0,0,0,0,0,0,0,0,0,0,0,0,0,0,0,0,0,0,0,0,0,0,0,0,0,0,0,0,0,0,0,0,0,0,0,0,0,0,0,0,0,0,0,0,0,0,0,0,0,0,0,0,0,0,0,0,0,0,0,0,0,0,0,0,0],"id":10,"left_children":[1,3,5,7,9,11,13,15,17,19,21,23,25,27,29,31,33,35,37,39,41,43,45,47,49,51,53,55,57,59,61,63,65,67,69,71,73,75,77,79,81,83,85,87,89,91,93,95,97,99,101,103,105,107,109,111,113,115,117,119,121,123,125,-1,-1,-1,-1,-1,-1,-1,-1,-1,-1,-1,-1,-1,-1,-1,-1,-1,-1,-1,-1,-1,-1,-1,-1,-1,-1,-1,-1,-1,-1,-1,-1,-1,-1,-1,-1,-1,-1,-1,-1,-1,-1,-1,-1,-1,-1,-1,-1,-1,-1,-1,-1,-1,-1,-1,-1,-1,-1,-1,-1,-1,-1,-1,-1],"loss_changes":[1.0128269E4,2.0181829E3,1.01918506E3,1.0268936E3,8.6829456E2,4.090299E2,6.00708E1,2.352622E2,3.797446E2,4.1687726E2,1.5822198E2,1.8736432E2,9.829065E1,1.7660957E1,4.916797E1,2.7216553E2,4.0275146E1,3.1223383E2,1.3304681E2,1.3265172E2,2.5370837E2,2.4591858E1,7.343738E1,1.5921603E2,4.27153E1,5.008853E1,3.1806274E1,1.0811846E1,1.1950058E1,3.1344727E1,1.8836914E1,1.7401001E1,1.9181116E2,7.6695557E0,3.083142E1,3.6980087E1,1.5828825E2,9.117786E1,7.15896E1,2.2452332E1,1.18141815E2,1.433158E2,9.350122E1,2.4878632E1,7.964569E0,4.5783085E1,3.249736E1,6.539279E1,4.5070366E1,2.5808811E1,2.9330017E1,5.959381E0,4.7113678E1,9.018677E0,1.3468018E1,7.7223883E0,1.1290998E0,1.2462143E1,6.3259583E0,1.256974E1,1.149231E1,1.1459961E0,1.5609619E1,0E0,0E0,0E0,0E0,0E0,0E0,0E0,0E0,0E0,0E0,0E0,0E0,0E0,0E0,0E0,0E0,0E0,0E0,0E0,0E0,0E0,0E0,0E0,0E0,0E0,0E0,0E0,0E0,0E0,0E0,0E0,0E0,0E0,0E0,0E0,0E0,0E0,0E0,0E0,0E0,0E0,0E0,0E0,0E0,0E0,0E0,0E0,0E0,0E0,0E0,0E0,0E0,0E0,0E0,0E0,0E0,0E0,0E0,0E0,0E0,0E0,0E0,0E0,0E0],"parents":[2147483647,0,0,1,1,2,2,3,3,4,4,5,5,6,6,7,7,8,8,9,9,10,10,11,11,12,12,13,13,14,14,15,15,16,16,17,17,18,18,19,19,20,20,21,21,22,22,23,23,24,24,25,25,26,26,27,27,28,28,29,29,30,30,31,31,32,32,33,33,34,34,35,35,36,36,37,37,38,38,39,39,40,40,41,41,42,42,43,43,44,44,45,45,46,46,47,47,48,48,49,49,50,50,51,51,52,52,53,53,54,54,55,55,56,56,57,57,58,58,59,59,60,60,61,61,62,62],"right_children":[2,4,6,8,10,12,14,16,18,20,22,24,26,28,30,32,34,36,38,40,42,44,46,48,50,52,54,56,58,60,62,64,66,68,70,72,74,76,78,80,82,84,86,88,90,92,94,96,98,100,102,104,106,108,110,112,114,116,118,120,122,124,126,-1,-1,-1,-1,-1,-1,-1,-1,-1,-1,-1,-1,-1,-1,-1,-1,-1,-1,-1,-1,-1,-1,-1,-1,-1,-1,-1,-1,-1,-1,-1,-1,-1,-1,-1,-1,-1,-1,-1,-1,-1,-1,-1,-1,-1,-1,-1,-1,-1,-1,-1,-1,-1,-1,-1,-1,-1,-1,-1,-1,-1,-1,-1,-1],"split_conditions":[6.7E1,5.2E1,8.2E1,4.8E1,5E1,4.3E1,1.8E0,1.0177E3,8E0,1.0118E3,1.0107E3,2.1E0,3E-1,4E0,8.6E1,2.7E1,3.8E1,3E0,4.5E1,1.71E1,7E-1,6.7E1,2.1E0,1.0236E3,5.6E0,-5E-1,1.0121E3,5.2E0,2.2E1,3.1E1,1.0145E3,1.0078E3,8E0,9.4E1,1.0223E3,2.57E1,1.4E1,9.995E2,1.0123E3,3E1,1E-1,1.0193E3,3.1E1,2.4E1,3.3E1,1.0175E3,7E1,1.0116E3,2.8E1,3.5E1,7.4E1,1.0141E3,2E1,1.79E1,6.5E1,2E0,1.3E1,1.0139E3,9.4E1,1.0315E3,1.0101E3,3.14E1,7E-1,-4.5245644E-2,-6.250786E-2,-2.1529313E-2,-4.4339877E-2,-6.7212604E-2,-2.8375689E-2,-4.6780284E-2,-6.1388053E-2,-5.064494E-2,3.1732712E-2,-4.0610667E-2,2.1515546E-2,3.1143982E-2,-3.991403E-2,1.9348092E-2,-2.2542648E-2,1.2411213E-3,3.678422E-2,-1.1729888E-2,2.1252967E-2,-1.7586E-2,-3.8257003E-2,-2.5094217E-2,6.3555925E-3,4.6354473E-2,2.06103E-2,-1.3453217E-2,6.032112E-2,1.4674398E-2,-1.35660935E-2,8.6102225E-3,4.1138876E-2,2.894023E-2,7.4189976E-3,-4.7086958E-2,-8.931292E-3,-5.355949E-2,1.9501353E-2,2.6906112E-2,4.4582352E-2,1.8652698E-2,-9.126357E-2,4.962757E-2,2.4390174E-2,6.3397825E-2,5.107508E-2,4.0818095E-2,6.0480338E-2,1.0955287E-2,-4.2756643E-2,1.1599659E-2,5.8240514E-2,7.217256E-2,2.252121E-2,2.2682399E-2,6.449456E-2,3.4900647E-2,-3.492786E-2,6.585477E-2,5.2138742E-2,6.897093E-2,1.8814191E-2,5.288812E-2,6.471433E-2],"split_indices":[11,11,11,5,5,5,1,13,7,13,13,3,3,7,11,11,11,4,11,14,3,5,3,13,1,1,13,3,9,5,13,13,7,10,13,1,11,13,13,5,3,13,5,8,10,13,10,13,5,5,11,12,9,14,5,7,9,13,11,12,12,14,3,0,0,0,0,0,0,0,0,0,0,0,0,0,0,0,0,0,0,0,0,0,0,0,0,0,0,0,0,0,0,0,0,0,0,0,0,0,0,0,0,0,0,0,0,0,0,0,0,0,0,0,0,0,0,0,0,0,0,0,0,0,0,0,0],"split_type":[0,0,0,0,0,0,0,0,0,0,0,0,0,0,0,0,0,0,0,0,0,0,0,0,0,0,0,0,0,0,0,0,0,0,0,0,0,0,0,0,0,0,0,0,0,0,0,0,0,0,0,0,0,0,0,0,0,0,0,0,0,0,0,0,0,0,0,0,0,0,0,0,0,0,0,0,0,0,0,0,0,0,0,0,0,0,0,0,0,0,0,0,0,0,0,0,0,0,0,0,0,0,0,0,0,0,0,0,0,0,0,0,0,0,0,0,0,0,0,0,0,0,0,0,0,0,0],"sum_hessian":[2.8478727E4,1.8833574E4,9.645151E3,1.0532893E4,8.300682E3,5.511444E3,4.1337075E3,7.407928E3,3.1249648E3,6.5352173E3,1.765464E3,3.1397922E3,2.3716519E3,2.0782196E2,3.9258853E3,4.929066E3,2.478862E3,1.5156019E3,1.6093629E3,1.6004088E3,4.9348086E3,7.2618976E2,1.0392743E3,2.1391216E3,1.0006706E3,9.201122E2,1.4515397E3,3.3198856E1,1.7462311E2,9.962068E2,2.9296787E3,1.2360525E3,3.6930137E3,9.663213E2,1.5125408E3,2.4177231E2,1.2738296E3,1.196999E3,4.123638E2,4.7346808E2,1.1269408E3,3.5389438E3,1.3958645E3,4.8369592E2,2.424938E2,6.426125E2,3.9666177E2,1.823061E3,3.1606064E2,4.7293617E1,9.5337695E2,9.543123E0,9.105691E2,7.279607E2,7.235789E2,2.5118399E1,8.080458E0,1.0807588E2,6.654722E1,1.7103104E2,8.251757E2,1.6059102E3,1.3237684E3,1.849847E2,1.0510677E3,1.8640323E3,1.8289813E3,9.514057E2,1.49156275E1,8.3494E2,6.7760077E2,2.2793796E2,1.3834343E1,1.1151684E2,1.1623127E3,4.628188E1,1.1507172E3,1.8049979E2,2.3186403E2,4.9701584E1,4.2376648E2,6.735558E2,4.5338498E2,2.169483E3,1.3694609E3,3.002554E2,1.0956091E3,3.525644E2,1.3113153E2,3.3790348E0,2.3911476E2,4.2782852E2,2.1478398E2,1.0492788E2,2.9173392E2,4.7811392E2,1.3449471E3,1.3490512E2,1.811555E2,2.045298E1,2.6840637E1,4.7015207E2,4.8322488E2,1.0678061E0,8.475317E0,2.603385E2,6.502306E2,4.5454877E2,2.7341193E2,6.164006E2,1.0717837E2,1.28924465E1,1.2225952E1,2.3372102E0,5.7432475E0,1.4045998E1,9.4029884E1,1.2565318E1,5.3981903E1,1.6509583E2,5.9352207E0,2.3684593E2,5.883298E2,1.6038782E3,2.031933E0,4.75304E2,8.484645E2],"tree_param":{"num_deleted":"0","num_feature":"17","num_nodes":"127","size_leaf_vector":"1"}},{"base_weights":[-5.696625E-3,-4.5097846E-1,7.3984784E-1,-6.9804686E-1,-9.528566E-2,4.368304E-1,1.1309584E0,-8.3952516E-1,-9.2840396E-2,-2.8508475E-1,3.9812303E-1,6.012792E-2,6.458246E-1,9.1673255E-1,1.2394041E0,-4.7787777E-1,-9.4759846E-1,2.3615284E-1,-4.2173886E-1,-8.109637E-2,-5.466159E-1,7.1958506E-1,1.1674562E-1,1.5162757E-1,-8.383316E-1,3.54606E-1,8.160474E-1,7.475552E-1,1.1371623E0,7.0968336E-1,1.2690706E0,-1.0132804E0,-2.7255467E-1,-1.0732852E0,-7.39638E-1,-2.6310393E-1,4.9906147E-1,-6.992956E-1,-2.5212225E-2,-2.6782727E-1,1.9631773E-1,-6.7723703E-1,-1.7886128E-1,9.1976845E-1,5.641165E-1,-3.400272E-2,6.873624E-1,5.0373286E-1,3.513493E-2,-1.1964523E0,-2.9896972E-1,6.2137246E-1,1.598591E-1,1.0100437E0,6.4290833E-1,8.2401305E-1,2.063364E-1,1.2370728E0,8.241109E-1,2.8625503E-1,9.8744744E-1,1.2874637E0,8.083342E-1,-6.2013317E-2,-4.2034324E-2,1.6924014E-2,-1.8442316E-2,-4.471777E-2,-6.2273093E-2,-2.52791E-2,-5.0337445E-2,1.9957734E-2,-2.4716944E-2,-1.4753531E-2,3.2061532E-2,-4.7404584E-2,-7.271672E-3,1.4082342E-2,-2.302317E-2,-2.0681757E-3,-2.6002685E-2,3.3621054E-2,4.9188198E-3,-2.9672304E-2,-5.110349E-2,-1.4587452E-2,2.7769456E-2,3.885592E-2,5.2577194E-2,4.055242E-2,1.5419602E-2,7.431056E-3,-1.9336622E-2,2.8822644E-2,5.4131266E-2,2.0864425E-2,5.0048348E-2,-5.1194917E-2,3.6223435E-3,-7.210007E-2,-2.8422166E-2,-4.3310758E-2,9.366486E-3,4.145118E-2,2.0030376E-2,-1.6664673E-2,1.9016774E-2,4.4765126E-2,6.080065E-2,-3.8621705E-2,3.319525E-2,-8.165329E-2,4.190388E-2,-3.1214673E-2,2.4509413E-2,4.3579572E-4,6.2985726E-2,2.9186716E-2,5.8932364E-2,-4.8015594E-2,2.4146045E-2,3.480598E-2,6.029954E-2,6.462889E-2,-1.5858443E-2,-2.3916906E-2,4.494013E-2],"categories":[],"categories_nodes":[],"categories_segments":[],"categories_sizes":[],"default_left":[0,0,0,0,0,0,0,0,0,0,0,0,0,0,0,0,0,0,0,0,0,0,0,0,0,0,0,0,0,0,0,0,0,0,0,0,0,0,0,0,0,0,0,0,0,0,0,0,0,0,0,0,0,0,0,0,0,0,0,0,0,0,0,0,0,0,0,0,0,0,0,0,0,0,0,0,0,0,0,0,0,0,0,0,0,0,0,0,0,0,0,0,0,0,0,0,0,0,0,0,0,0,0,0,0,0,0,0,0,0,0,0,0,0,0,0,0,0,0,0,0,0,0,0,0,0,0],"id":11,"left_children":[1,3,5,7,9,11,13,15,17,19,21,23,25,27,29,31,33,35,37,39,41,43,45,47,49,51,53,55,57,59,61,63,65,67,69,71,73,75,77,79,81,83,85,87,89,91,93,95,97,99,101,103,105,107,109,111,113,115,117,119,121,123,125,-1,-1,-1,-1,-1,-1,-1,-1,-1,-1,-1,-1,-1,-1,-1,-1,-1,-1,-1,-1,-1,-1,-1,-1,-1,-1,-1,-1,-1,-1,-1,-1,-1,-1,-1,-1,-1,-1,-1,-1,-1,-1,-1,-1,-1,-1,-1,-1,-1,-1,-1,-1,-1,-1,-1,-1,-1,-1,-1,-1,-1,-1,-1,-1],"loss_changes":[9.38288E3,1.5549856E3,1.2520166E3,8.939868E2,6.794654E2,4.689104E2,1.0603174E2,3.3032715E2,2.1430174E2,2.794835E2,1.8224005E2,1.7494978E2,1.8961902E2,5.710901E1,4.718457E1,2.1400421E2,1.6949463E2,1.3011606E2,1.0897296E2,1.5259814E2,1.1016022E2,2.8755981E1,9.258524E1,7.918183E1,3.7637573E1,7.3411804E1,8.053259E1,3.633792E1,2.0028687E1,1.9069633E1,2.3502441E1,2.0110413E1,8.310292E1,1.2391943E2,1.5312793E2,5.260947E1,7.346622E1,8.012988E1,5.4728794E1,1.00538025E2,5.52047E1,4.833142E1,5.014914E1,6.8824463E0,3.334619E1,5.4949585E1,9.235954E0,2.0211372E1,5.7446545E1,1.7358627E1,2.2182028E1,2.7023727E1,8.9201805E1,2.580774E1,3.8547913E1,2.8071594E1,2.6369051E1,1.4121643E1,1.3442558E1,1.678838E1,5.46064E0,2.3250977E1,1.3684654E1,0E0,0E0,0E0,0E0,0E0,0E0,0E0,0E0,0E0,0E0,0E0,0E0,0E0,0E0,0E0,0E0,0E0,0E0,0E0,0E0,0E0,0E0,0E0,0E0,0E0,0E0,0E0,0E0,0E0,0E0,0E0,0E0,0E0,0E0,0E0,0E0,0E0,0E0,0E0,0E0,0E0,0E0,0E0,0E0,0E0,0E0,0E0,0E0,0E0,0E0,0E0,0E0,0E0,0E0,0E0,0E0,0E0,0E0,0E0,0E0,0E0,0E0,0E0,0E0],"parents":[2147483647,0,0,1,1,2,2,3,3,4,4,5,5,6,6,7,7,8,8,9,9,10,10,11,11,12,12,13,13,14,14,15,15,16,16,17,17,18,18,19,19,20,20,21,21,22,22,23,23,24,24,25,25,26,26,27,27,28,28,29,29,30,30,31,31,32,32,33,33,34,34,35,35,36,36,37,37,38,38,39,39,40,40,41,41,42,42,43,43,44,44,45,45,46,46,47,47,48,48,49,49,50,50,51,51,52,52,53,53,54,54,55,55,56,56,57,57,58,58,59,59,60,60,61,61,62,62],"right_children":[2,4,6,8,10,12,14,16,18,20,22,24,26,28,30,32,34,36,38,40,42,44,46,48,50,52,54,56,58,60,62,64,66,68,70,72,74,76,78,80,82,84,86,88,90,92,94,96,98,100,102,104,106,108,110,112,114,116,118,120,122,124,126,-1,-1,-1,-1,-1,-1,-1,-1,-1,-1,-1,-1,-1,-1,-1,-1,-1,-1,-1,-1,-1,-1,-1,-1,-1,-1,-1,-1,-1,-1,-1,-1,-1,-1,-1,-1,-1,-1,-1,-1,-1,-1,-1,-1,-1,-1,-1,-1,-1,-1,-1,-1,-1,-1,-1,-1,-1,-1,-1,-1,-1,-1,-1,-1],"split_conditions":[6.5E1,5.2E1,8E1,5.4E1,4.6E1,3.7E1,8.6E1,1.011E3,8E0,1.0162E3,1.0124E3,1.0263E3,1E-1,4.4E1,4.9E0,2.6E1,4.3E1,5E0,4E1,2E-1,7E-1,1.56E1,5.3E0,1.0114E3,3E1,1.0129E3,1.0133E3,1.0235E3,2.02E1,9.7E1,1.0251E3,1.6E1,1.0042E3,8E0,1.0177E3,1.0072E3,1.8E1,3.13E1,1.0133E3,2.61E1,1.0067E3,1.0256E3,1.27E1,1.21E1,2.6E1,1.0184E3,2.2E1,7.7E1,1.13E1,7.4E1,1.53E1,2.2E1,5E0,5.7E1,8.3E0,2E0,2.6E1,4.4E0,2.38E1,5E0,1.9E0,3.04E1,2E1,-6.2013317E-2,-4.2034324E-2,1.6924014E-2,-1.8442316E-2,-4.471777E-2,-6.2273093E-2,-2.52791E-2,-5.0337445E-2,1.9957734E-2,-2.4716944E-2,-1.4753531E-2,3.2061532E-2,-4.7404584E-2,-7.271672E-3,1.4082342E-2,-2.302317E-2,-2.0681757E-3,-2.6002685E-2,3.3621054E-2,4.9188198E-3,-2.9672304E-2,-5.110349E-2,-1.4587452E-2,2.7769456E-2,3.885592E-2,5.2577194E-2,4.055242E-2,1.5419602E-2,7.431056E-3,-1.9336622E-2,2.8822644E-2,5.4131266E-2,2.0864425E-2,5.0048348E-2,-5.1194917E-2,3.6223435E-3,-7.210007E-2,-2.8422166E-2,-4.3310758E-2,9.366486E-3,4.145118E-2,2.0030376E-2,-1.6664673E-2,1.9016774E-2,4.4765126E-2,6.080065E-2,-3.8621705E-2,3.319525E-2,-8.165329E-2,4.190388E-2,-3.1214673E-2,2.4509413E-2,4.3579572E-4,6.2985726E-2,2.9186716E-2,5.8932364E-2,-4.8015594E-2,2.4146045E-2,3.480598E-2,6.029954E-2,6.462889E-2,-1.5858443E-2,-2.3916906E-2,4.494013E-2],"split_indices":[11,11,11,5,5,5,11,13,7,13,13,13,3,5,14,11,11,4,11,3,3,14,3,13,5,13,13,13,15,11,13,11,13,7,13,13,11,15,13,2,13,13,3,14,9,13,3,11,2,11,2,15,7,5,15,14,5,14,14,7,3,15,5,0,0,0,0,0,0,0,0,0,0,0,0,0,0,0,0,0,0,0,0,0,0,0,0,0,0,0,0,0,0,0,0,0,0,0,0,0,0,0,0,0,0,0,0,0,0,0,0,0,0,0,0,0,0,0,0,0,0,0,0,0,0,0,0],"split_type":[0,0,0,0,0,0,0,0,0,0,0,0,0,0,0,0,0,0,0,0,0,0,0,0,0,0,0,0,0,0,0,0,0,0,0,0,0,0,0,0,0,0,0,0,0,0,0,0,0,0,0,0,0,0,0,0,0,0,0,0,0,0,0,0,0,0,0,0,0,0,0,0,0,0,0,0,0,0,0,0,0,0,0,0,0,0,0,0,0,0,0,0,0,0,0,0,0,0,0,0,0,0,0,0,0,0,0,0,0,0,0,0,0,0,0,0,0,0,0,0,0,0,0,0,0,0,0],"sum_hessian":[2.8261604E4,1.769408E4,1.0567522E4,1.0440809E4,7.253272E3,5.9555264E3,4.611996E3,8.46222E3,1.9785887E3,5.2385757E3,2.0146963E3,2.1255706E3,3.8299558E3,1.5532078E3,3.0587883E3,1.9482345E3,6.5139854E3,9.8929285E2,9.892959E2,2.9437935E3,2.2947822E3,9.396397E2,1.0750566E3,1.9298633E3,1.957072E2,1.4139836E3,2.4159722E3,8.8124994E2,6.719579E2,1.6354192E2,2.8952463E3,5.3894385E2,1.4092906E3,4.057538E3,2.4564473E3,3.412559E2,6.48037E2,5.8149994E2,4.0779596E2,1.7594921E3,1.1843015E3,1.6927135E3,6.0206885E2,4.08602E2,5.3103766E2,8.511389E2,2.2391766E2,4.7893433E2,1.450929E3,1.168824E2,7.88248E1,5.957407E2,8.18243E2,1.1370796E3,1.2788926E3,7.717083E2,1.0954159E2,5.0714932E2,1.6480856E2,6.55884E1,9.795351E1,2.7823774E3,1.12869095E2,2.3011868E2,3.0882516E2,1.9151088E2,1.2177798E3,1.9927852E3,2.064753E3,1.3107742E3,1.1456732E3,8.812863E1,2.5312726E2,9.823547E1,5.498015E2,4.0076407E2,1.8073586E2,2.3938124E2,1.6841472E2,9.277065E2,8.317856E2,2.0106029E2,9.8324115E2,1.3639967E3,3.2871683E2,5.223608E2,7.9708015E1,1.995172E2,2.090848E2,2.6905862E2,2.6197906E2,5.611733E2,2.8996567E2,1.7677388E2,4.7143784E1,4.0956967E2,6.936466E1,4.84796E1,1.4024493E3,8.3096016E1,3.3786385E1,3.602366E1,4.280114E1,3.0556845E2,2.9017227E2,2.5263889E2,5.6560406E2,7.336981E2,4.0338144E2,1.8171894E1,1.2607207E3,3.7370222E0,7.679713E2,2.7594118E1,8.194747E1,9.203891E0,4.9794543E2,9.9794266E1,6.50143E1,8.408453E0,5.717995E1,4.377919E1,5.4174316E1,2.7737317E3,8.645644E0,7.133049E0,1.05736046E2],"tree_param":{"num_deleted":"0","num_feature":"17","num_nodes":"127","size_leaf_vector":"1"}},{"base_weights":[-2.8215924E-3,-3.9589563E-1,7.7154523E-1,-6.6490734E-1,-5.8562797E-2,5.023065E-1,1.1372373E0,-1.6369955E-1,-7.8884923E-1,3.6540577E-1,-2.58294E-1,2.6182783E-1,7.326847E-1,7.545011E-1,1.1776268E0,-4.4686368E-1,8.663207E-2,-6.9098914E-1,-1.057669E0,6.403467E-1,1.574886E-1,-3.5430977E-1,2.6366657E-1,3.3870044E-1,-3.5834152E-1,9.30925E-1,5.711519E-1,1.2288706E0,6.123353E-1,1.0552204E0,1.2729869E0,-1.9929779E-1,-7.5940955E-1,3.8678396E-1,-8.415526E-2,-1.0282333E0,-5.757093E-1,-1.1529026E0,-8.1248885E-1,9.372569E-1,5.343279E-1,4.0929145E-1,-8.169569E-2,-2.4737822E-1,-5.511763E-1,8.139081E-1,1.3843158E-1,3.8809696E-1,-3.789382E-1,-5.0311796E-2,-7.436305E-1,9.362621E-1,-6.8203217E-1,2.1684346E-1,6.736492E-1,6.2991045E-2,-1.9867582E-2,1.0738929E-1,8.064236E-1,1.2478164E0,9.8244405E-1,1.2801814E0,-6.841417E-1,-3.1522967E-2,6.797034E-3,-4.4087913E-2,-1.1999131E-2,-2.1695593E-2,2.3741737E-2,-1.2764856E-2,8.904303E-3,-6.2025767E-2,-4.803951E-2,-1.7390404E-2,-4.318841E-2,-6.7660354E-2,-5.4196257E-2,-4.2836864E-2,5.7671357E-2,-2.3484007E-2,4.8513692E-2,1.8339343E-2,3.6055457E-2,4.645509E-4,2.509736E-2,-1.915151E-2,5.746083E-3,-5.0081564E-3,-2.3441626E-2,-3.267846E-2,-8.545147E-3,-2.7162973E-2,4.6221398E-2,-5.9839655E-2,9.029264E-3,3.192562E-2,1.2826584E-2,-5.3639587E-2,6.4861225E-3,-1.1061981E-2,3.3663884E-2,-4.765797E-2,1.974248E-2,5.097693E-2,4.100768E-2,-8.127303E-2,1.0095858E-2,1.4235481E-2,-4.9069017E-2,2.3956377E-2,4.03171E-2,-2.4074312E-2,1.899897E-2,3.245627E-2,5.9583157E-2,6.563201E-2,5.6406826E-2,4.3089684E-2,5.5689007E-2,6.570881E-2,5.7609256E-2,1.997534E-2,-7.7791095E-2],"categories":[],"categories_nodes":[],"categories_segments":[],"categories_sizes":[],"default_left":[0,0,0,0,0,0,0,0,0,0,0,0,0,0,0,0,0,0,0,0,0,0,0,0,0,0,0,0,0,0,0,0,0,0,0,0,0,0,0,0,0,0,0,0,0,0,0,0,0,0,0,0,0,0,0,0,0,0,0,0,0,0,0,0,0,0,0,0,0,0,0,0,0,0,0,0,0,0,0,0,0,0,0,0,0,0,0,0,0,0,0,0,0,0,0,0,0,0,0,0,0,0,0,0,0,0,0,0,0,0,0,0,0,0,0,0,0,0,0,0,0,0,0],"id":12,"left_children":[1,3,5,7,9,11,13,15,17,19,21,23,25,27,29,31,33,35,37,39,41,43,45,47,49,51,53,55,57,59,61,63,65,67,69,71,73,75,77,79,81,83,85,87,89,91,93,95,97,99,101,103,105,107,109,-1,-1,111,113,115,117,119,121,-1,-1,-1,-1,-1,-1,-1,-1,-1,-1,-1,-1,-1,-1,-1,-1,-1,-1,-1,-1,-1,-1,-1,-1,-1,-1,-1,-1,-1,-1,-1,-1,-1,-1,-1,-1,-1,-1,-1,-1,-1,-1,-1,-1,-1,-1,-1,-1,-1,-1,-1,-1,-1,-1,-1,-1,-1,-1,-1,-1],"loss_changes":[8.52385E3,1.6855674E3,9.2776904E2,6.418154E2,6.9803015E2,3.0076526E2,6.0905273E1,1.4535587E2,2.1721484E2,1.5080432E2,2.8090802E2,1.2690849E2,8.829419E1,2.5168198E1,4.0842773E1,7.429196E1,5.5854004E1,2.3565137E2,5.064624E1,3.526999E1,9.064226E1,9.950098E1,5.9918274E1,8.4043E1,3.4828743E1,1.1346069E1,5.5454437E1,4.9114227E0,2.9091362E1,2.1038208E1,2.9411621E1,7.7880295E1,2.6790466E1,2.87561E1,3.1230885E1,2.095288E1,2.971471E2,2.048413E1,5.504489E1,1.4283569E1,2.6012527E1,2.7164185E1,4.580627E1,1.00004715E2,6.472467E1,2.4697662E1,4.0225876E1,7.280356E1,5.410949E1,2.0473808E1,3.1494408E1,1.1155151E1,4.2316003E0,2.833487E1,3.0252808E1,0E0,0E0,1.36373415E1,1.2249176E1,1.8700562E0,1.7381958E1,7.2734375E0,8.248514E0,0E0,0E0,0E0,0E0,0E0,0E0,0E0,0E0,0E0,0E0,0E0,0E0,0E0,0E0,0E0,0E0,0E0,0E0,0E0,0E0,0E0,0E0,0E0,0E0,0E0,0E0,0E0,0E0,0E0,0E0,0E0,0E0,0E0,0E0,0E0,0E0,0E0,0E0,0E0,0E0,0E0,0E0,0E0,0E0,0E0,0E0,0E0,0E0,0E0,0E0,0E0,0E0,0E0,0E0,0E0,0E0,0E0,0E0,0E0,0E0],"parents":[2147483647,0,0,1,1,2,2,3,3,4,4,5,5,6,6,7,7,8,8,9,9,10,10,11,11,12,12,13,13,14,14,15,15,16,16,17,17,18,18,19,19,20,20,21,21,22,22,23,23,24,24,25,25,26,26,27,27,28,28,29,29,30,30,31,31,32,32,33,33,34,34,35,35,36,36,37,37,38,38,39,39,40,40,41,41,42,42,43,43,44,44,45,45,46,46,47,47,48,48,49,49,50,50,51,51,52,52,53,53,54,54,57,57,58,58,59,59,60,60,61,61,62,62],"right_children":[2,4,6,8,10,12,14,16,18,20,22,24,26,28,30,32,34,36,38,40,42,44,46,48,50,52,54,56,58,60,62,64,66,68,70,72,74,76,78,80,82,84,86,88,90,92,94,96,98,100,102,104,106,108,110,-1,-1,112,114,116,118,120,122,-1,-1,-1,-1,-1,-1,-1,-1,-1,-1,-1,-1,-1,-1,-1,-1,-1,-1,-1,-1,-1,-1,-1,-1,-1,-1,-1,-1,-1,-1,-1,-1,-1,-1,-1,-1,-1,-1,-1,-1,-1,-1,-1,-1,-1,-1,-1,-1,-1,-1,-1,-1,-1,-1,-1,-1,-1,-1,-1,-1],"split_conditions":[6.7E1,5.2E1,8.2E1,1.0118E3,1.0146E3,5E-1,4.5E0,3.5E1,1.0219E3,2.24E1,3.4E0,1.0257E3,1.0145E3,1.0166E3,8.9E1,6E0,6E0,2.7E1,1.03E1,1.0064E3,1.0108E3,1.0221E3,5.3E1,4.7E1,8.8E1,3.25E1,1.09E1,1.48E1,8.9E1,1.0101E3,3.04E1,2.1E1,2.84E1,1E0,7E1,3E0,8E0,3.3E1,8E0,3.7E0,2.8E1,6.2E1,5.7E1,1.89E1,1.9E1,6.6E1,3.6E0,1.0142E3,6E0,2E1,1.72E1,1.0103E3,2.42E1,1.0309E3,1.3E1,6.2991045E-2,-1.9867582E-2,1.03E1,6.3E0,1.0078E3,2.1E0,9.8E1,1.0099E3,-3.1522967E-2,6.797034E-3,-4.4087913E-2,-1.1999131E-2,-2.1695593E-2,2.3741737E-2,-1.2764856E-2,8.904303E-3,-6.2025767E-2,-4.803951E-2,-1.7390404E-2,-4.318841E-2,-6.7660354E-2,-5.4196257E-2,-4.2836864E-2,5.7671357E-2,-2.3484007E-2,4.8513692E-2,1.8339343E-2,3.6055457E-2,4.645509E-4,2.509736E-2,-1.915151E-2,5.746083E-3,-5.0081564E-3,-2.3441626E-2,-3.267846E-2,-8.545147E-3,-2.7162973E-2,4.6221398E-2,-5.9839655E-2,9.029264E-3,3.192562E-2,1.2826584E-2,-5.3639587E-2,6.4861225E-3,-1.1061981E-2,3.3663884E-2,-4.765797E-2,1.974248E-2,5.097693E-2,4.100768E-2,-8.127303E-2,1.0095858E-2,1.4235481E-2,-4.9069017E-2,2.3956377E-2,4.03171E-2,-2.4074312E-2,1.899897E-2,3.245627E-2,5.9583157E-2,6.563201E-2,5.6406826E-2,4.3089684E-2,5.5689007E-2,6.570881E-2,5.7609256E-2,1.997534E-2,-7.7791095E-2],"split_indices":[11,11,11,12,12,3,1,11,12,2,3,12,12,12,11,6,6,11,1,12,12,12,11,0,10,15,14,15,11,12,15,11,14,6,10,4,6,11,3,1,0,10,11,14,8,10,1,12,4,8,15,12,1,12,8,0,0,2,14,12,3,10,12,0,0,0,0,0,0,0,0,0,0,0,0,0,0,0,0,0,0,0,0,0,0,0,0,0,0,0,0,0,0,0,0,0,0,0,0,0,0,0,0,0,0,0,0,0,0,0,0,0,0,0,0,0,0,0,0,0,0,0,0],"split_type":[0,0,0,0,0,0,0,0,0,0,0,0,0,0,0,0,0,0,0,0,0,0,0,0,0,0,0,0,0,0,0,0,0,0,0,0,0,0,0,0,0,0,0,0,0,0,0,0,0,0,0,0,0,0,0,0,0,0,0,0,0,0,0,0,0,0,0,0,0,0,0,0,0,0,0,0,0,0,0,0,0,0,0,0,0,0,0,0,0,0,0,0,0,0,0,0,0,0,0,0,0,0,0,0,0,0,0,0,0,0,0,0,0,0,0,0,0,0,0,0,0,0,0],"sum_hessian":[2.8001646E4,1.8573895E4,